,scVI_1,scVI_2,scVI_3,scVI_4,scVI_5,scVI_6,scVI_7,scVI_8,scVI_9,scVI_10
covid_1_TAGAGTCGTCCTCCAT-1,0.011767983,-1.1347263,-0.67762613,0.75594175,-0.47207654,0.014796793,1.8496168,0.42361182,0.22629535,1.5591239
covid_1_CCCTGATAGCGAACTG-1,0.80463445,-0.7278516,-1.7853664,0.8999784,0.45314384,0.46325874,-1.1140093,-0.19817483,0.908079,-0.9087337
covid_1_ATTTACCCAAGCCTGC-1,0.5638636,0.8917035,0.46569684,0.6899334,0.7681958,1.4439971,-0.0778848,0.672729,-2.246852,-0.9299309
covid_1_GTTGTCCTCTAGAACC-1,-0.9568474,-2.2432728,0.8808435,0.77136815,-0.86477745,-1.6231066,1.0480694,0.3434304,-0.04295519,1.5151737
covid_1_AATAGAGGTGTGAGCA-1,0.5129919,-2.1489425,-0.8002852,1.9149581,1.2435822,-0.40063226,0.23383576,-0.19797218,0.23617557,1.6472796
covid_1_GGTGGCTAGCGAATGC-1,0.51653945,-2.521017,-0.029613823,-1.3494327,-0.39724243,0.1778417,-0.9878983,-0.4740218,-0.0496352,-0.93602884
covid_1_GGTGTTACACGACGAA-1,1.929553,1.2208799,1.1675577,1.2160362,0.036883816,-0.12695587,-1.181333,-0.13586152,0.46746933,0.4829393
covid_1_ACTATTCAGCTGTACT-1,-0.43766063,0.6718137,1.1426898,-0.6489442,-0.3720836,-0.85646284,1.5550344,-0.12432325,-1.4209774,1.2727592
covid_1_ATCGTAGTCATTGTTC-1,-0.3958041,-0.2938925,0.89604247,1.2342166,-0.08870184,0.33937263,0.74921894,1.7519326,0.010724779,0.49634707
covid_1_TTCTAACCACTTGACA-1,-0.7526478,-0.12806101,-1.2188841,-1.6169367,-0.36876327,-0.64403987,-0.45269203,-0.3202995,0.9544177,-0.87855256
covid_1_AAAGGATCAGCTGTAT-1,0.07566744,-0.18908429,0.58517706,0.8107871,-0.0060241967,0.9564091,0.5542598,1.1666675,0.9893193,1.1553614
covid_1_AGTTAGCGTCAGGTAG-1,-0.42204314,-1.6536518,0.5805712,-0.70717,0.71665305,-0.45483506,-0.3430456,-2.4336782,-0.49110255,0.75322944
covid_1_AGACAGGAGGACAACC-1,-0.47248158,0.14087135,0.7450675,0.10478169,-0.5862324,-0.79882026,0.44116223,-0.09611809,-2.0171537,-0.6119989
covid_1_GGTAATCGTGCACATT-1,0.68574816,-0.7814259,-2.5129454,0.82664144,0.030427009,0.33914888,-0.9400336,0.36981332,0.92416644,0.42767972
covid_1_TCATTGTGTACCGCGT-1,0.47606733,-0.35656816,-0.63311076,0.3830093,-0.13990378,0.4828539,0.07059649,1.4164438,-1.3496082,0.35966063
covid_1_CTCCTTTGTTCCCACT-1,-0.4458278,-4.2737746,-0.2769894,1.0806946,-0.5982167,-0.8320011,-1.6939224,-0.4919163,-0.90663755,1.8116698
covid_1_GCAACATGTCAAGTTC-1,-1.4073694,0.29650074,-1.6495254,-1.2817571,0.064353034,0.033820212,-0.84315264,-0.14430666,0.5967659,-0.1700033
covid_1_CATCGGGTCCCAAGCG-1,0.12829024,-1.7119042,0.5368291,-0.48637438,0.47766995,-0.7404245,-0.23561502,-2.1069202,-0.69082,1.0686427
covid_1_CGTAATGAGACCCGCT-1,0.2712651,-0.081834644,-0.4988972,0.89072514,-0.2082032,0.88017637,0.58596194,0.57649255,-1.42863,0.6418041
covid_1_ATTGTTCGTGTTCGAT-1,0.8943171,-0.44812673,0.13735059,-1.3992653,-0.5359769,-0.64024234,0.010881149,-1.6812378,0.245891,-0.6823026
covid_1_GTGTAACTCCCTTGGT-1,-1.0862262,-0.68965673,0.6461965,1.0363362,-0.15712452,0.30125302,-0.27555993,1.9351854,-0.4673728,0.3190825
covid_1_GTACAACGTGGTCCGT-1,0.60816735,0.6504924,-0.21103334,1.3919197,-0.5983037,-0.18290639,0.32037508,-0.6291193,0.8263122,0.17607814
covid_1_GTCTTTACATGGAATA-1,0.261656,0.3903581,1.5607525,1.0802172,0.14441834,1.0693157,-1.0222903,1.601838,-1.9060981,-1.1791855
covid_1_CGAGAAGCATGACTCA-1,-0.5027427,-1.9616224,1.1572758,0.07110894,-0.48189324,-0.3054654,0.10837774,0.25774825,-1.7326124,0.104204595
covid_1_CGCATAAAGGTGCTAG-1,-0.7155333,-0.5214654,0.12177017,0.8738719,-1.0157098,0.5385454,0.595814,0.85902345,0.5482347,-0.289528
covid_1_CTCGAGGGTGACGCCT-1,1.939244,-0.02534753,-1.2764888,0.568629,-0.30723214,-0.3484068,0.8806999,0.33097863,1.3249872,0.29562008
covid_1_TGAGGAGTCTGTCGCT-1,1.9929492,-1.2491319,-0.30230087,1.1218768,0.20121038,-0.23073135,-0.4838035,0.10099733,-0.15725496,0.7403524
covid_1_ACGGAAGAGCCAAGCA-1,-0.5565962,-0.3277713,1.482452,0.6881138,-0.17730054,0.45764887,-0.85388863,2.0498261,-0.49236098,-0.2786311
covid_1_AGTAGCTAGTTGAAAC-1,0.47907665,-0.58844817,0.26536158,0.57399,-0.032553524,0.71287656,-0.40265948,1.7566658,0.05921608,0.1515904
covid_1_TGAGGTTAGGTGCGAT-1,0.2521711,-1.5491436,-0.011233956,0.10691625,-1.3369726,2.5330606,-0.41759628,-0.57738125,-0.5795127,-0.7139468
covid_1_AAAGAACAGGTAGTCG-1,0.06665492,-0.66105855,-0.24611664,1.0976251,-0.41425306,0.4095437,0.6309233,1.0331827,0.6414727,0.26233512
covid_1_TGTGATGAGCTGTGCC-1,-0.27102524,-0.13106456,-1.0683562,1.0959197,-1.0896784,1.1474388,1.3688871,0.09333718,-1.5866854,0.19482177
covid_1_TGTGTGACAATCGCCG-1,0.45381278,-0.89223576,0.8788358,0.46853125,0.27682465,1.7459306,-0.34894684,-0.8544067,0.5984514,1.7708628
covid_1_TGAGCATGTTCTATCT-1,-0.6617506,0.4831223,0.6724818,0.025081813,0.08121379,-1.3425449,0.6275629,0.42080283,-1.18004,-0.52614975
covid_1_AGTTAGCGTATTCCTT-1,-0.46602163,-4.5178585,0.53946877,1.2186557,-1.5730871,-0.9305661,-1.2796063,-0.7591492,0.10409686,1.4878209
covid_1_AGGGCCTTCATCGTAG-1,-0.032987297,0.028481662,-0.22606397,1.0942082,-0.7876862,0.7078027,1.749886,0.89110243,0.15863663,0.4929309
covid_1_CAGATTGCATTGCAAC-1,-1.5235631,0.72183657,0.566749,-0.78263366,1.3076624,0.35235912,0.43229863,0.60090625,-0.5324776,1.7650054
covid_1_TGCCGAGCAATTGCAC-1,-0.36651093,0.76741743,0.5383699,0.12999552,0.05301754,-1.7800795,1.5769519,-0.08454788,1.0115998,0.9458462
covid_1_GGGAGTATCCGCACTT-1,0.84345454,-0.35783476,-2.2268944,1.3883694,0.67469776,-0.62448037,-0.23971766,-0.054036975,0.07632418,-0.3868116
covid_1_TGGGCGTCACCCATAA-1,-1.4279082,-0.14450791,-0.10494226,0.0513165,-0.6862867,-1.0346783,0.1421813,0.05691302,-1.1480448,-0.60189474
covid_1_TCACACCTCCTACTGC-1,-0.78311306,-4.9128094,1.0632812,1.8510646,0.54703957,-1.3429705,-2.316517,-0.86000955,-1.9303341,0.584217
covid_1_ACCATTTTCGCTACAA-1,-0.24794608,-0.97068423,-0.70340466,-1.2045496,0.8105531,-0.4508369,-0.7430365,-0.45677805,1.5110096,-1.3140346
covid_1_TCCACGTCACATACTG-1,-0.30652338,0.7673861,-0.5933155,0.67174613,-0.3967138,1.8260049,1.1279725,-0.3689971,-1.7300243,0.006039381
covid_1_AGTTCCCGTTGTCTAG-1,-0.3946572,-0.062270775,1.2171602,-0.13180941,-0.107986726,-1.120482,0.57189953,0.40602034,-0.032381147,-0.29871857
covid_1_AACAAGAAGTCTCCTC-1,0.74012786,-0.56468576,0.7727566,-1.1872399,0.02210322,-0.110878706,-0.89360857,-1.0173503,-0.11925623,-0.021402657
covid_1_CATACCCCAAGTTCGT-1,1.4516058,-2.447752,-0.3608768,1.7148985,0.83067256,-0.035972595,0.11944129,-0.7996677,0.13299046,1.4633603
covid_1_GAAATGACAACCGGAA-1,-1.5848372,-0.13614634,-0.7867055,-0.94588596,0.9780137,-0.07977533,-1.7296298,0.34788406,-0.6743156,1.1634219
covid_1_TCGCACTTCAAACGAA-1,1.3462129,-1.8827157,-0.5169289,1.2251786,0.045578375,0.41950405,-0.48133445,-0.757038,0.56555986,1.1448374
covid_1_GGGTTATGTCGTATGT-1,-1.5452845,-1.9250005,-0.063246146,1.2568172,0.3778956,0.043649673,0.038175307,1.5879977,0.04182526,0.10584259
covid_1_TTTCCTCGTACCGCGT-1,-0.38657576,-1.4572153,-0.12245159,1.036369,0.548213,-0.75258887,0.69983435,1.8335502,-0.8932464,-0.17901218
covid_1_AATCGACTCTCGTCAC-1,-1.7296565,-1.7003258,-0.84712875,0.6546935,-0.38876235,0.17832464,0.28591,1.6366699,-0.10457325,0.2736525
covid_1_GCTGCAGCAGTCAACT-1,0.60427094,-0.10982029,0.17122436,0.9730495,-0.07390692,0.63930905,0.7549657,0.81013656,-0.9887086,-0.3337642
covid_1_TTACGTTTCGGAATTC-1,1.5738981,-0.7299341,-1.6926138,0.29459584,-0.8302656,-0.0054525137,0.2897166,0.10641062,1.0620911,-0.55175626
covid_1_TACCCACAGTATGGCG-1,1.8314416,0.8712567,-0.039066687,0.8287314,1.0685483,-0.7639004,-0.6473931,0.34452355,1.4721885,0.712726
covid_1_AGGGCTCCAGCTCGGT-1,-1.6000674,0.37296832,-0.15148157,0.5016216,-0.02692999,1.0010507,1.2083722,1.2567451,-0.025631681,-0.052969575
covid_1_GAATCGTTCTTCTGTA-1,-0.37652725,-1.1400657,-0.4031886,0.7357056,-0.19245932,1.0153084,0.44334218,0.75533247,-0.4871669,-0.5493351
covid_1_AATGGAAAGAAGCCTG-1,0.9117675,0.45460743,-2.1895974,1.105107,0.22797805,0.40115917,-1.1359203,-0.1344819,1.2140057,-0.80660856
covid_1_TCTTAGTAGATGAAGG-1,-0.9071358,1.1275512,0.37836435,0.9588125,-0.63772655,0.4611385,1.178063,1.3857366,0.09212664,0.5821755
covid_1_TATTTCGGTTAGTCGT-1,1.1823726,0.6884436,0.16009465,1.6572458,-0.40971228,-0.06273961,-0.61690575,0.13881874,1.8563663,0.9797176
covid_1_TCATGTTCAATCTCTT-1,-0.6180869,-0.56682605,0.6829202,0.95557296,0.8862663,0.1939004,0.101859026,1.8314102,-1.2763431,0.41043967
covid_1_CCTCACACACTAAACC-1,-1.1105487,0.09200877,-0.515494,1.1300162,-0.9973342,0.2498995,-0.055691093,1.6192799,-1.3289928,1.5163335
covid_1_CACGGGTTCCGTTGGG-1,0.78147185,-0.83825123,0.088187724,0.5683762,-1.3653693,2.464993,-0.067200504,-1.4704717,-1.2396173,-0.71642184
covid_1_ACCTGAATCGGTCTAA-1,-0.49327514,0.93067634,0.19937164,1.3986579,-0.28263628,0.3053869,-0.1790624,1.5503074,-1.0681623,-0.047158122
covid_1_GGAGATGAGATGGCAC-1,1.0566995,0.541358,0.8192743,0.2135104,-0.80619454,0.536759,1.4670225,1.141927,0.84059656,0.39577067
covid_1_ACGGGTCGTGTCCACG-1,1.1849271,0.40226364,0.9108381,1.5762128,0.6408038,-0.5517379,-1.2674361,-0.74894726,0.55218416,0.3898995
covid_1_GAGACTTCAGACAAAT-1,0.6139754,-1.2258329,-0.43091524,-0.9076226,-0.5787834,-1.2057964,0.31501922,-0.81452763,-0.27598366,-1.0880913
covid_1_GGAACCCTCGAGCCAC-1,-1.3698161,-1.5482954,-0.42796773,-0.94623935,-0.9818521,-1.1148201,0.96291435,-0.2988783,1.1148174,1.5896912
covid_1_TCCGTGTGTATTGACC-1,0.35113692,-0.056210667,-0.100534976,1.1001369,0.83824784,1.0329843,-1.0990232,1.5268276,-1.4119825,-0.8105769
covid_1_TCCCACATCGAGAAGC-1,1.2739437,0.26423943,-0.8660685,0.21836674,-1.3179779,1.9205295,0.8806411,-0.6155081,-1.6805,-0.18471098
covid_1_AAAGAACGTGGCACTC-1,1.1360847,-0.5556102,-0.057111174,1.4074765,0.061349392,1.2966986,0.15486318,-0.20339406,-1.6131885,-1.4723538
covid_1_GCGTTTCGTTATCTGG-1,-0.8306796,-0.47783834,0.67120636,-1.7649864,-0.5919206,-0.35193932,0.28965896,-0.5865606,0.98484623,0.059834305
covid_1_CAGCAGCTCGTGCATA-1,-0.9662174,0.09433383,-0.061941653,0.0531981,-0.7391389,-1.2133929,0.6599457,0.08202493,-1.699493,-0.69638455
covid_1_TGGGTTACACAGTGAG-1,1.2418818,0.23497225,0.25123897,1.630139,-0.66526586,0.43995136,-0.4618932,0.04254663,0.56321645,2.7755854
covid_1_ATCTCTACACAGTACT-1,0.30435818,-0.79392093,1.1729553,0.2847383,0.083302155,0.28572744,0.25000763,2.014602,0.8519807,-0.14988661
covid_1_CATGCCTAGAGCCATG-1,-1.3264956,-0.047228962,-0.063601345,0.77574,-0.9576817,0.7900514,0.9403797,1.4230964,-0.5854932,0.83298963
covid_1_ACACAGTAGCCTGTCG-1,0.48650783,-0.3590111,0.29322872,0.754146,-0.15001386,0.6850619,0.026854716,1.5654026,-1.5526159,0.5299059
covid_1_CGCCAGATCGACTCCT-1,-0.55562276,0.32030857,0.5020635,-0.41518956,0.041310847,-0.8170868,1.1330675,-0.8339075,-1.6545115,-0.14760613
covid_1_TGCAGTACAAATGCGG-1,0.9138564,-1.0797952,-1.6092259,1.0014734,0.10827212,-0.175026,0.33920002,0.29585135,0.40014857,-0.4491216
covid_1_TTACTGTGTAGAAACT-1,-0.62308544,-1.0224586,-0.32873225,1.1242603,0.43088895,-0.16585624,0.8371963,1.3348874,-0.5160788,0.29394436
covid_1_ACAAGCTAGTGCGTCC-1,0.335078,-1.6785349,-1.5903634,2.0816708,0.23563302,-0.3403648,0.09255626,-0.24738479,1.560515,-0.030549169
covid_1_ATGAGGGCAGCATGCC-1,0.61894274,-1.190248,0.481204,-1.244457,-0.54330075,-1.1040467,-0.06621528,0.529751,-0.3812823,-0.89315605
covid_1_CTCTCGAAGGTACAGC-1,-0.8502477,-0.5227144,-0.22439161,0.30990565,-0.48765182,-1.3280839,1.0995666,0.61045504,-1.09151,0.5528139
covid_1_GTCTTTAAGCCTCAGC-1,0.2529233,-0.23657387,2.6409285,-0.72567886,-0.5552261,-0.22182447,0.45355126,0.4221872,0.5442881,1.2740808
covid_1_AGACTCACATGTGTCA-1,-1.1674254,-0.22856255,-0.42754385,0.4925239,-1.0841209,1.0278023,0.38998836,1.5182022,0.2210333,1.0701863
covid_1_AAGGAATAGACCATTC-1,-0.3610466,0.5035423,-0.2895664,0.2811705,-0.3096041,0.1425196,1.7773033,0.93626744,-1.0656934,-0.14877093
covid_1_GTCAAACGTAACATCC-1,-0.19716936,0.18823954,-0.127694,0.38666737,-1.6963745,0.450181,0.40843186,1.4868708,0.21809736,1.4626576
covid_1_ACGGGTCAGTGGAATT-1,1.4699137,-0.52184135,-0.6332024,0.904968,0.6331112,1.0158439,0.96291876,0.1796788,-1.1190908,-0.31442952
covid_1_GAACTGTTCGTCTAAG-1,-0.48160025,0.74652433,1.0883089,0.27104676,-1.2254909,-0.599661,1.0910684,-0.2830305,-1.2325816,-0.2975787
covid_1_TGGAGAGCAGAAGTGC-1,1.6541989,-0.051853433,-0.91988015,1.0140985,0.27223474,1.4474579,-0.48336017,-1.100022,-0.14331338,2.3682437
covid_1_AGGAATACAGCAGTCC-1,-0.21352154,0.7432214,-0.79701185,-1.3002377,0.3884828,0.02872336,-1.6925682,-0.50050426,-0.25268993,0.6530764
covid_1_GATGATCGTCCAAATC-1,-0.54812354,0.37909973,0.5714234,0.087163985,-0.3280565,-0.859391,1.55301,-0.33608913,-1.4264832,0.6392136
covid_1_TTTACCATCATTTGCT-1,-0.9255541,-1.2412078,-0.9224652,-1.3568664,-0.21041846,-0.40034616,1.012437,-0.6537787,0.79486346,0.3747158
covid_1_TTACGCCTCCTAGCCT-1,-1.076642,-2.483336,-0.47648865,0.5730721,-0.22347376,-0.443982,-0.19237843,1.4548651,-0.30103046,-0.78945816
covid_1_ATACCTTAGAAGTGTT-1,0.48517814,-0.39078474,1.2041615,0.95071924,-0.6249011,0.18186733,-0.035439245,1.8976187,0.034249585,-0.39822042
covid_1_ATCCATTGTCCCAAAT-1,-0.3197828,-0.55489624,-0.09595838,1.6412753,0.32513267,0.49717158,1.0658579,0.93812853,-0.9584985,-0.7686082
covid_1_GCTCAAATCGGACTGC-1,-0.62731344,0.037439346,1.2307999,-0.7806826,-0.27354342,-0.9249451,0.5655173,-0.3803085,0.6296935,2.0637527
covid_1_GTAAGTCGTGCAATGG-1,-0.85509616,0.67262036,0.10384175,0.49562347,-0.73721915,1.304407,0.9710063,0.7447263,-0.9006722,0.9410849
covid_1_AATAGAGTCCATTGGA-1,-0.14254266,1.0748743,-0.952454,-1.2590418,0.8016433,0.0032234192,-1.1948446,-0.2071203,1.0304066,0.01069957
covid_1_ACATCCCGTAATGCTC-1,1.0176822,1.1152803,0.572842,1.3625802,0.38874453,-0.48887897,0.36239028,0.027881742,-0.07299346,1.2687159
covid_1_TTCTTCCAGCCAAGCA-1,-0.34390968,0.9187678,1.0971011,0.70759594,0.34706378,-0.24659942,0.38695782,1.9298191,0.18531238,0.43756908
covid_1_TGCTGAAGTCCGTTTC-1,0.81911147,-0.36104518,-0.7727712,1.358518,0.8541549,-0.25865096,-0.12678474,-0.40569794,0.5230185,0.819466
covid_1_TAGATCGAGGTAAAGG-1,1.4404566,0.14094192,0.95815086,1.8118454,0.74840766,0.8744288,-1.5781999,-0.3079189,1.0040092,1.1461486
covid_1_GTTAGTGAGAGCGACT-1,0.91043323,-0.31827337,-1.1568664,0.1950106,-0.19724274,1.679813,0.3482779,0.34658825,-1.085732,0.15766215
covid_1_GGATCTAAGCGACCCT-1,0.05473584,0.34493083,0.8372282,0.4930104,-0.21915865,0.48151505,0.3423948,1.7791231,0.24857366,0.02182484
covid_1_CAAGAGGAGTAAGACT-1,-0.59212726,0.5748006,1.0621961,0.09602606,0.42926365,-1.2476951,1.8528901,0.030771853,0.11510658,0.0017580986
covid_1_TCCGGGATCTGCTAGA-1,1.1062348,0.61014414,-1.9149436,0.028721452,-2.046811,1.4831722,1.132593,-1.0585827,-1.3608298,0.756334
covid_1_CTAACTTGTGTGTTTG-1,-0.30647546,-0.33770007,1.2257174,-0.7107967,0.66377264,-0.40971076,0.79584587,-0.26717734,-1.8220029,-0.5696056
covid_1_GACCCTTGTATGAGAT-1,-0.95347357,0.33933443,0.44633165,0.28937042,-0.6200681,-1.8118035,0.14187533,0.74903274,0.037626322,0.24639863
covid_1_AGACAAAGTTTATGCG-1,-1.0147128,1.3335884,-1.3794428,-0.80744714,1.0387437,-0.88243604,-0.83573675,-0.42796457,0.044411387,0.4630906
covid_1_ACCTGAATCGCTCCTA-1,-0.55506843,-0.540993,1.3177494,0.9258679,-1.2382603,2.0668857,-0.23275933,-1.4933239,-0.29173294,1.2447388
covid_1_CTCCAACGTGGTCTAT-1,0.6235952,-1.6923041,0.20550236,0.3772949,-0.24015328,0.7567489,1.1947978,0.6566925,-0.01822424,-0.0020698905
covid_1_AGGGCTCCACCGCTGA-1,0.6545807,0.7233933,0.19014183,0.41328633,0.12310611,0.93039054,0.8532838,0.89154714,-0.7794812,-0.1872431
covid_1_GTCACTCGTCGATTCA-1,0.13730115,-0.5016096,1.0752987,0.5335598,-0.69855756,0.35798866,-0.98437476,1.6218163,-0.6112175,0.7312808
covid_1_GTCACGGAGGGATCGT-1,1.1709979,-1.3678715,-0.76896703,0.12279272,-0.2789324,1.7999634,0.48119962,-0.47240365,-1.7236348,-0.8165581
covid_1_GCCATTCTCAAGTTGC-1,0.9652591,-0.69209397,2.1735132,-0.022901475,-0.2838604,-0.5355419,0.035784535,-0.6101049,-1.3835549,1.942382
covid_1_GCCAGTGCAGAGGTAC-1,0.5717573,0.6400413,-1.1406062,0.92672884,0.5319599,0.03262198,0.48149893,0.08233178,1.540046,-0.40722978
covid_1_GCTGCAGAGTCGCCAC-1,-0.49008545,-1.4659859,-0.3127879,0.6036986,0.22589886,0.78612286,0.08977007,1.2913493,-1.491855,0.33470893
covid_1_TTGCTGCTCCACACAA-1,-0.011685073,0.36235058,1.0040643,0.6830251,-0.15228918,0.49208963,1.4218631,1.1728349,0.6491672,-0.27737772
covid_1_CCTATCGTCTATACTC-1,0.38330835,-0.86745906,0.20104602,0.49232256,0.31077665,1.277597,0.7544148,0.5665293,-1.0148554,-0.29370296
covid_1_ATACTTCAGTCGAATA-1,-0.5260015,-4.194096,-0.6303478,0.9632677,-1.5034502,-0.5657557,-0.8142322,-0.9686955,0.027122047,0.9792478
covid_1_CGTTCTGAGTAACGTA-1,-0.6245846,0.16333956,1.6577466,-0.29772556,1.1257133,-0.4859197,0.024506263,-2.0040727,-0.5852903,1.376688
covid_1_TGCGATATCAGGAAGC-1,1.600976,0.5664849,-0.0032227933,1.6030916,0.016115174,0.14209342,-0.43262324,-0.115674615,-0.7640079,0.30110395
covid_1_TGATTTCCAGGGAGAG-1,1.1042275,0.25818628,-0.2501187,1.6863924,-1.662996,0.39928406,-0.31097546,-0.9295112,0.3897622,0.19395477
covid_1_GGAGATGTCCCTTTGG-1,0.67102075,-0.20495804,-0.18953048,0.78378475,-0.7380898,0.5657354,2.1422162,0.80376005,-1.0652819,0.8434872
covid_1_GGGATCCCACTGCATA-1,-1.6132915,0.31336772,0.030188827,-1.2231424,0.007881507,-0.43526065,0.26304078,0.76519567,-0.38974664,0.36457396
covid_1_CAACAGTGTCTCTCCA-1,-0.4645097,0.7374157,-0.22916907,1.1536344,-0.51723367,-0.19419956,1.0219442,1.8236479,0.21756819,0.53520495
covid_1_GTGCTTCTCAATCCGA-1,0.5219275,-0.11064862,0.66468835,1.3904821,1.0886037,0.07423258,-0.57609105,1.5788224,-0.252138,-0.7472192
covid_1_TCATTGTTCTGGCTGG-1,0.067175865,0.30902117,1.4992245,0.29635298,-1.1833549,-0.66554964,-2.6476533,-0.31019437,-0.56436026,-0.16844678
covid_1_GTCACGGTCCAAGGGA-1,0.595283,0.8103291,0.62388086,1.0912536,-0.36838782,0.3136425,0.085640945,1.884705,-0.53176236,0.3657204
covid_1_CTGCAGGAGAGGTTTA-1,-0.98271036,0.040750384,-0.50566065,-0.19214547,-0.5393338,-0.78190386,0.7988864,-1.6035959,-1.3590906,0.9149459
covid_1_ACCAAACAGCCATCCG-1,1.193297,-0.005124718,-1.2105012,1.0688471,0.5514678,-0.86811364,-0.037318535,0.0128496885,1.3151765,-0.99430203
covid_1_CTGAGGCAGTGGCAGT-1,0.38675177,0.5264252,-0.29259604,0.051736355,-1.724747,1.7964369,1.1181353,-0.79293454,-0.93463016,1.6174864
covid_1_GACATCAAGTCCCGAC-1,0.84031427,0.80052865,0.6274779,0.44676387,0.26149565,0.7984396,1.0613471,0.58813524,-0.9903854,0.16767472
covid_1_GTGGAAGAGAATCGCG-1,0.31707495,-0.89121276,0.3995464,0.29844856,0.21497548,0.7007599,0.61337304,0.9932009,-0.32450867,0.70871466
covid_1_ACCCAAAGTGCCTAAT-1,1.0380951,0.1318382,-1.9146223,0.47982776,0.25740188,0.28231877,-0.38403422,0.0049575567,0.71844697,-0.099984765
covid_1_GCTGAATAGAGATTCA-1,1.5674585,1.540413,-0.19839513,1.9278613,-0.55919874,0.90141505,-1.2771386,-1.2913834,0.9375787,0.05233467
covid_1_CAGCCAGAGACATGCG-1,0.5888974,0.45631623,0.19165161,1.0699619,0.55047053,1.1631811,0.9969107,0.48469353,-1.1071575,-0.81692886
covid_1_CAGATTGCAAGTGACG-1,0.017303646,-1.0007284,-0.50587445,0.59813964,-0.657323,-0.120063305,2.5599432,0.36762655,0.013902362,0.24703121
covid_1_GAAGGACTCTGCGATA-1,-0.9257594,-0.94957095,-0.3927436,1.699629,-0.50777644,-0.30614424,-0.025520332,1.5977,-2.0346742,0.7400466
covid_1_AGCTCAAGTTTGTTGG-1,-0.56181604,0.19932032,-0.7628864,-1.7654172,0.539979,0.7996246,-1.914172,0.27528954,0.21768528,0.04533047
covid_1_ACCCTCACAGCTACCG-1,-0.4341424,0.11079502,1.7912706,0.41466343,-0.9125465,-0.8390857,0.7390538,-1.4368848,-0.85749793,0.67085326
covid_1_TCATGTTAGGAATTAC-1,-1.0761425,1.0619851,0.90891194,1.3682066,-0.7149567,0.18135077,-0.31133226,2.110635,0.5678828,0.5815549
covid_1_ACCACAACAAGTGCAG-1,1.2319813,0.33207762,2.2412267,2.365364,-0.73340124,-1.6050302,-3.5437675,-0.2559464,-1.7381588,-0.5527904
covid_1_TTGCATTGTTTCGTGA-1,0.21712881,0.48377097,-0.03702806,0.36813676,0.613522,1.0060608,0.729723,1.1017858,-0.3379306,-0.10056651
covid_1_GAGATGGTCCGAGCTG-1,-1.3034723,0.0653649,1.5944717,0.0721854,0.40069914,-0.13159716,0.051674213,0.9169773,-1.0994769,0.87211907
covid_1_GCCAACGCAACGATTC-1,-0.7189842,-0.45261157,0.43782517,0.8715844,-0.20610991,0.59966886,-0.32161704,1.6422362,-0.11312832,0.22885102
covid_1_TGCTTGCCAACCGACC-1,-1.6406386,-0.66523546,1.1139897,1.0120149,-1.1911056,-0.7756885,0.51334214,0.039835095,0.03305566,-0.3130226
covid_1_AAACGCTCATGACCCG-1,-0.34155995,0.800768,-0.7120944,-1.5136029,-1.0938675,-0.350955,0.60504496,-0.2932613,-0.67937887,0.7325578
covid_1_GAGTTACGTCCGGATC-1,1.7233628,0.059669852,1.2855482,1.0799577,0.46376598,-0.5653988,-1.3321226,0.41472298,1.277628,1.2459308
covid_1_GTAGAGGCAGAGTTGG-1,-0.15300637,-0.36057633,-1.3922746,0.30299294,-0.40497747,1.4265515,1.2591482,0.62174857,-1.246937,0.64586127
covid_1_GTTACGAAGATGGTCG-1,0.016234636,-0.7021806,-0.59864223,1.0148393,-0.026320994,0.29957217,0.6368649,1.4850348,-0.19187447,0.113790154
covid_1_CACAGATTCATGGATC-1,-0.5800554,0.7160443,1.0506014,-0.69434094,0.7309243,-1.0460559,0.8363925,0.07229662,-0.4823793,0.621193
covid_1_TTCACGCGTTGTTGTG-1,-1.7014458,-0.47111297,2.3493378,-0.6117739,-0.3888181,-0.8419533,-0.5733975,-1.0867444,0.7481793,1.2896682
covid_1_CGTCCATAGCATCGAG-1,0.4071507,-0.58925307,-0.1368785,0.92416203,0.009623051,0.44689584,-0.010856107,1.7868185,0.22016776,0.66501456
covid_1_GGTTGTATCAGCGCAC-1,-0.9449937,0.0809924,0.17764995,-1.051453,1.4582057,-0.52271986,-1.5678216,0.17918229,1.2523131,0.31668675
covid_1_CATTCATGTCGGAAAC-1,-0.15302545,1.0771314,-1.1404095,-1.4196899,-0.06575907,0.19620186,-1.2793753,-0.5745499,-2.2403135,1.0033394
covid_1_ATAGAGATCTCTTCAA-1,0.39200675,1.2229584,-1.449754,1.8185152,-1.4078327,0.10366619,-0.18218791,-1.426215,-0.833001,1.5789953
covid_1_TTTCAGTTCTGCGTCT-1,-2.291239,-1.700395,-1.409729,1.7217208,1.1035017,-1.8534776,0.46286038,0.82762885,-1.3394041,-3.7729154
covid_1_CAACGATTCAAGAGTA-1,0.3832602,-0.9093996,-0.5850808,0.072722375,-1.7692714,0.6834627,0.47073576,0.6513752,-1.4952793,0.30398244
covid_1_GTGGTTACAGTCCGTG-1,-0.52489144,-1.3570269,1.0771141,0.8499594,-0.6221136,0.9948447,0.061165143,1.7061262,-0.5678755,-0.73605585
covid_1_TCTCCGAAGTAGATCA-1,-0.17235023,-1.5466183,1.3421845,-0.35282588,0.82238716,-0.8676617,-0.6996728,-2.5679302,-0.13824579,0.18358934
covid_1_GAGTTTGAGATGAATC-1,2.4571579,-0.96860385,0.16959113,1.9743572,1.7615356,0.21997786,-0.26599914,-2.4326859,1.8990415,-0.84906685
covid_1_GAGTGAGCAAATGCGG-1,1.6691209,-0.79183996,-0.5442249,1.012083,-1.6330987,0.47674185,-0.4124455,0.385319,1.0721219,-0.794489
covid_1_CTTGAGACATCCAATG-1,0.26764935,0.18784171,-0.18609762,0.3702742,-0.4243489,0.7401217,0.24481167,1.5061902,-2.3740454,-0.08529174
covid_1_TTGTGGATCAGCACCG-1,0.89342546,0.18426079,-1.3785319,0.50773704,-0.21625742,0.054771125,0.17762896,-0.052188754,1.8183895,-0.27749884
covid_1_CTCCTCCAGGCAGGGA-1,-0.3385182,-1.6306194,-0.9960438,0.26557976,1.2551931,1.4500304,0.18656972,0.525527,0.3891296,-1.6463536
covid_1_TCTCCGACATGAAAGT-1,-0.9152433,0.10435349,1.1222306,1.1375157,-0.35484472,0.64044327,1.1474785,1.471485,0.8017447,0.0015134811
covid_1_TGGGATTGTATTTCTC-1,0.25834805,-0.65317273,-1.0132109,-1.1394048,0.29514307,-0.60382867,0.85488164,-1.7578222,0.5699188,-0.1742214
covid_1_CACTTCGGTCGCTCGA-1,1.1313127,-0.89696103,0.22183153,0.5881864,0.6728639,1.0455223,-0.12745705,0.9352164,-1.2878776,-0.38846958
covid_1_TTGGGTACACTGGCGT-1,0.7713506,-0.525827,-0.8151252,-0.79125047,0.4619776,-1.0601879,0.5539835,-1.3611287,-0.2576431,0.036730174
covid_1_TCCAGAAGTAGTGTGG-1,-0.24959487,-4.2043414,-0.16960552,1.0125252,0.08875556,-1.6979867,-0.3223203,-0.8711823,0.23446348,0.20974433
covid_1_TATACCTTCGCGCCAA-1,0.56033933,-0.2587891,-0.15915868,0.3476336,-0.572223,0.6342655,0.7257131,1.2825955,-1.8569741,-0.20416117
covid_1_GGTGTCGGTTTGGAAA-1,-1.3215656,0.49060524,1.2203587,-0.40877193,0.06923537,-0.6729039,0.6826967,0.3446337,-1.0440047,1.1936646
covid_1_GGTGTTATCCCTCTTT-1,-0.21709496,-2.8110223,-0.18836227,-1.3181267,-0.08729271,-0.44421113,-0.24431759,-0.26167393,0.5919526,-0.69220793
covid_1_GCAGCCAGTGAGGCAT-1,0.346083,0.39024884,1.3241841,0.937495,-0.8691583,-0.17695838,-0.39716464,2.256128,-1.0639701,-1.4014691
covid_1_CTGTACCGTCACAGAG-1,0.30902636,0.17159808,-0.26027393,1.0486448,0.62914354,1.3724734,-0.26028973,0.7967522,-1.7365148,-0.5067214
covid_1_TGACTCCCAGTTAAAG-1,-0.63393193,0.45804548,0.61005795,0.009027362,-0.5659068,0.9585799,1.5733947,0.9389908,0.41495916,1.1356416
covid_1_GATGACTTCTTCCGTG-1,-0.7928069,-2.1907544,0.13246807,-1.1272042,-1.2768362,-0.444147,-0.22731277,-0.39846694,0.9167706,-0.35213077
covid_1_GCCATGGCACAATGCT-1,-1.1044328,-1.800559,-0.86706185,0.62635934,-0.08918939,-0.09604448,0.028076671,1.49733,-0.0526803,0.2901941
covid_1_CATTGCCGTTCCACAA-1,0.5647887,0.4962728,0.6843504,2.353911,-1.5590597,1.3405194,-0.5120721,-0.5122664,-3.3619494,-0.25452256
covid_1_CTTGAGAGTAGTCTGT-1,-1.011729,1.7479185,-1.5959896,-1.0387895,0.9078203,-0.07453048,-1.0494152,0.47808564,-0.68540967,1.7212154
covid_1_ATTCAGGCACAGCCAC-1,0.4441978,-0.41602004,-0.7427943,0.38530016,-0.41281986,0.075882494,0.40574053,1.9429545,1.1849129,1.2146498
covid_1_ATCAGGTCACAGAGCA-1,-0.6230579,0.31747854,-0.5799471,0.6785635,-0.0013999939,1.1229446,-0.5484973,1.1945447,-1.4008849,0.19127882
covid_1_GAGAGGTAGAGTACCG-1,-1.197367,-1.5009001,-1.8281192,-0.31223452,0.7899788,-0.29122305,-1.4629983,-0.69119203,-0.9552208,1.3270937
covid_1_ACCATTTCATGCAGGA-1,-1.1336377,-0.4422481,1.2395124,1.2651179,0.18198948,-0.41881454,0.029772393,1.7978761,0.6641984,0.31312227
covid_1_ATTCCTAGTGACTGTT-1,-1.3428199,-0.8855567,0.12469515,0.8061348,-0.27294767,-1.2235309,0.7237072,0.6522804,-0.6820036,0.13285273
covid_1_GGGCTACAGATAGTCA-1,-0.8455983,-4.976999,-0.33479217,1.3507243,0.316786,-1.5440804,-0.4825713,-1.3441592,0.647539,0.8201529
covid_1_TTCCTAAAGGTTACAA-1,-0.8225897,0.26133448,0.98336834,-0.36316842,-0.40790734,-0.39652026,1.2553979,0.347165,-1.4566157,0.6678741
covid_1_CATTGAGGTCTAATCG-1,1.7193063,-0.43101728,0.07175371,2.0677862,0.47654182,0.7416128,-1.4765291,-1.621544,1.3595906,-0.28735316
covid_1_AGACAGGCATAATCGC-1,0.31325442,-2.3413658,-0.37396154,0.9106635,0.8990367,-0.08519846,0.96647555,0.54995483,0.24334243,0.9363601
covid_1_GTCCCATTCAAGCTTG-1,0.101203084,-4.076954,-0.27785102,0.9725145,-0.89324313,-0.75048745,-0.63556385,-0.8581718,-0.00049582124,1.5891622
covid_1_CTCCACACACTACTTT-1,-1.0402079,-0.984742,0.54112124,0.8810866,-0.45828742,-1.1572905,1.5534939,-1.1576654,-0.9994111,0.9693428
covid_1_TCGGGACCATGGTGGA-1,0.21686876,-1.5437002,0.21914092,-1.514398,-0.19661272,-0.68286574,-0.52158445,0.052019477,0.082170665,-0.0069304705
covid_1_GGAGGATAGTGTTCAC-1,-0.18464679,0.8321723,0.39344582,1.5704561,0.9338599,0.25996435,0.15280762,1.3977282,-1.3000693,-0.3753034
covid_1_TAACACGCACGACAAG-1,-0.47977027,-0.10695702,-0.42344296,-1.2380965,-0.145186,-0.510911,0.23541027,-0.8018509,-0.26521492,-0.34666884
covid_1_AGGCCACCATCATTGG-1,1.9142315,1.7645892,1.2651197,1.4766196,-0.11689637,-0.59279287,-1.0016755,-1.3067838,0.66013443,1.2403336
covid_1_CGCATGGTCCTGGCTT-1,0.77153206,0.27051646,-0.8953811,0.07569599,-0.73090893,1.5858096,0.9398907,0.21961367,-0.49115446,0.40614116
covid_1_CATTCCGAGAGTAACT-1,-0.11090522,0.0748685,-0.3644168,0.7024797,0.5836515,0.90575683,-0.66548705,1.318603,-1.316596,-0.12848079
covid_1_TGCAGATAGTCGAAAT-1,-0.029868424,-0.40051842,-1.0700796,0.8984766,-1.2767786,1.1813213,0.010711023,0.9020905,-0.2714621,0.45630336
covid_1_GGACGTCCAAATAAGC-1,-1.129364,-2.275298,2.1662817,1.1838067,0.16752587,-0.9448098,0.7939413,-1.5729748,-1.733172,1.1427649
covid_1_TGTAAGCTCTAGAACC-1,-0.80354685,1.1973273,-0.22778368,-1.5446391,0.6272891,-0.14668351,-1.7628677,-0.17809963,0.5002384,-0.6370815
covid_1_CTGTCGTCAGGCATGA-1,0.12898988,-0.092709675,-0.8828174,-0.8633522,-1.461463,-1.0910534,0.6132845,-0.9269527,-0.62953484,0.74406934
covid_1_AAAGTCCGTCGTTATG-1,-0.4004348,-1.0052934,0.3123556,-1.5309639,0.85378546,-0.8489853,0.3050062,-0.8284329,0.32581377,-0.89017093
covid_1_GTGGGAAGTATCTCTT-1,1.0818257,-0.21558124,1.3405569,0.33989716,2.0416217,1.7279984,0.4142676,-2.0136867,1.0424083,0.69769704
covid_1_TAACACGGTGCAACGA-1,0.7177638,0.53188545,-0.40682167,0.48388398,-0.27216795,0.91838354,0.90103185,1.0406134,-1.1570519,0.20761025
covid_1_TTCATGTAGGAACGCT-1,1.2277792,-0.991678,0.39721724,0.19072121,-0.5124921,2.0913658,0.009904583,-0.48124254,-0.0075297058,-0.112120986
covid_1_GCATTAGTCGAGCCTG-1,0.11725396,-0.47909307,0.82219756,1.0800375,0.06589441,0.8678055,-0.8812697,1.7253759,-0.91275215,-1.0461019
covid_1_CCCGGAATCACCTGTC-1,-1.5708141,0.06369272,0.14170492,0.13861716,-0.9657895,-0.92868555,0.15163347,0.5359434,-0.09696463,-1.0243218
covid_1_TCCCAGTAGTGTAGAT-1,-0.8958151,-0.5152572,2.2745805,0.044883728,-0.71984977,-0.8534273,-0.24687514,0.46785188,0.5820638,-0.14717758
covid_1_GTCATGATCTCCTGCA-1,-1.5025797,-1.2867025,0.84076977,1.4644934,0.0718202,0.001660943,-0.37030008,2.136198,-0.27199915,-0.49041796
covid_1_AACCCAAAGTCACACT-1,-0.103974275,-0.96822554,0.09302503,0.72116697,0.5756009,0.025612831,0.113001,1.8279495,-0.25217402,0.62567836
covid_1_CGCCAGAAGGAACATT-1,0.65613955,0.54010344,-0.5924858,0.35753322,-0.39736253,1.5180839,0.25249177,0.81559014,-0.9608996,0.880049
covid_1_GTCCCATCACCCTTAC-1,1.5663865,1.806594,-1.7452501,0.5285944,-0.4653437,0.07190293,0.36663252,-0.37601304,0.33811066,-0.30666208
covid_1_TGGGCTGCACATCATG-1,1.3224256,-0.22149009,2.3705018,0.11161345,0.31579155,-1.442721,0.57475775,-0.55346656,-1.4163508,0.5835974
covid_1_GGGTTTAGTACTGACT-1,-0.15096396,0.26490617,-0.93461704,0.049751103,0.8683395,1.7539853,-0.88460946,1.0450587,-0.3292717,0.16650122
covid_1_GTGCAGCTCTCCCATG-1,1.3016117,-0.5589162,-0.6541792,0.8447441,0.021143407,-1.1636385,0.14977375,0.22975719,0.3175508,-0.44748223
covid_1_CATGCTCGTCCTCCAT-1,0.81045675,-0.85936314,0.12286776,-1.1234536,-0.56500155,-1.5085436,0.5141189,-0.7289871,-0.9431983,-0.062355757
covid_1_TGTACAGGTCACAATC-1,-0.35378796,0.13884336,1.5239362,-0.21316902,0.5047373,-0.35610116,0.47406343,-0.12237847,-1.7710484,-0.26852167
covid_1_GTCATCCCATGACTCA-1,0.023658216,1.2226647,-0.33759886,0.9729928,-0.6178237,-0.66634536,1.2261409,0.77284575,0.013946604,0.25482142
covid_1_ACTATTCAGGACAGTC-1,-0.2931456,-4.2399135,0.35355082,1.1897345,-0.64532894,-1.3709596,-1.2458569,-1.000456,-1.0266701,1.1507657
covid_1_GTCAAACCACCGGAAA-1,-0.84595364,-1.9047422,-2.121133,-1.0087644,1.0023236,-0.97987497,-0.65904033,0.4267633,-0.21322644,1.1437508
covid_1_CAACCAACAGCGCGTT-1,0.9115805,0.27753747,-1.8053167,1.1031193,0.23708189,0.10055536,0.6347023,0.02740109,1.8389527,-0.38466036
covid_1_AGTGCCGAGTAAATGC-1,0.9641465,-1.1889333,-0.53227234,-1.2550614,0.6408752,-1.2053894,0.6107815,-0.5344311,-0.2296777,-0.23371923
covid_1_GCCGATGGTTTCGACA-1,-2.573178,0.726864,0.36405614,1.4697477,-0.8598706,0.9075488,0.99032557,1.2391146,-0.77157867,0.9898335
covid_1_GTACAGTGTGTGTTTG-1,-0.16532427,-0.5515724,-0.04149288,0.86434364,0.29874313,0.6961206,1.0670193,0.49221337,-0.8010161,-0.14030492
covid_1_CCCTCAAGTGATGGCA-1,0.6182803,0.7644527,-2.1619172,1.4070247,-0.44309223,-0.7721311,-0.15803784,-0.12823772,0.45198405,-0.5771661
covid_1_CCCATTGGTTGCATTG-1,-0.6262416,-1.1734931,1.6085519,0.6199633,0.45399374,2.1248422,-0.020861693,-0.69507635,1.264832,1.3890669
covid_1_ACGGGTCCAAGAAATC-1,-1.7557664,-0.14196101,1.9588555,-0.26445764,-0.031712934,-0.026094317,-0.04620097,0.5641353,-1.1384586,0.81224775
covid_1_GGTTGTAAGTCAATCC-1,0.3314849,0.1092844,0.92597926,0.93977773,0.26558292,0.1678226,1.3527745,1.2185024,-0.20863843,0.7084428
covid_1_ATGGATCGTACGCTAT-1,0.2252456,-0.43744063,0.097750634,0.6905832,-0.46178383,0.41470063,2.0894532,-0.47200048,-1.8195739,0.36761355
covid_1_TGCAGATCAGGAATCG-1,0.1690954,-1.0218301,-0.123937845,1.0062953,1.6700168,1.2956184,-1.4546719,1.2293379,-2.3248544,-0.58396995
covid_1_AGCCACGTCGACGACC-1,-0.15084285,1.4499681,-0.21221305,0.37583363,0.97243387,-0.92204344,-2.5494757,-0.90135753,-3.2137024,0.20657575
covid_1_TCCTCGAGTATGGTAA-1,1.8742123,0.6050587,0.49902937,1.4707915,0.5856841,-0.08511841,-0.20723,-1.8514189,0.9449053,1.7697155
covid_1_TTTACCATCCGCAACG-1,-1.4334998,0.8068359,0.44059005,0.08102602,-0.68165904,-0.86792386,0.4767576,-0.13940501,-1.3275723,-1.2264785
covid_1_GCACGTGAGGGCAAGG-1,-0.36775118,-1.4756527,-0.30289525,-0.8319883,-0.12926146,-0.16134942,-0.2729801,-0.55508053,-0.36202198,1.1094503
covid_1_GCCAGCACAAGAATGT-1,-0.77499634,-0.79996014,-0.948663,-1.2947737,1.2633833,0.060922027,-0.94028723,-0.9436263,1.3631877,-0.59087074
covid_1_TCTCTGGCACTGAATC-1,-2.6685746,-2.5507898,0.6238214,1.2381088,0.5738351,-0.38116014,0.26968747,1.8250831,-0.05407533,-1.3286113
covid_1_CATCCACGTTCGTTCC-1,-1.3560503,-0.28946626,1.1426289,0.6961529,-0.68212205,2.2905445,0.17395186,-1.4129242,-1.1848452,2.3966894
covid_1_TGCTTCGAGGGACAGG-1,-0.46088025,0.38730204,-0.3793062,-1.3071574,0.9041577,-0.69931877,-0.015825916,-0.06720245,0.36326107,1.2016567
covid_1_CTCCGATAGGTGATCG-1,-1.5692501,-5.0545325,1.5504959,1.512901,1.0539522,-0.9074284,-2.9071474,-1.1561433,-0.7270042,-0.049201608
covid_1_TTCCGTGCAGCTAACT-1,-0.66894644,0.7213868,-0.036746502,-0.75510895,1.0141238,-0.98255074,2.201835,-0.32452857,-1.1413529,0.90147996
covid_1_CAGTGCGGTAAGTAGT-1,0.32160735,-1.0583624,-0.0977235,-0.88438284,0.09193008,-0.24796139,0.68115145,-0.11708093,-0.7615862,0.49272406
covid_1_GGTGTTAAGACTACGG-1,0.77845454,-0.11373001,0.7515079,0.023813605,-0.48496997,0.5949814,1.088329,1.0639861,-0.9221709,0.23351455
covid_1_TTGCTGCAGGACAAGA-1,-0.694568,-3.3885837,-0.68795145,1.4223386,-0.55742645,-1.3165914,-0.18748266,-0.84900963,0.64258015,0.53442585
covid_1_CATTTCATCCTGTAAG-1,-0.75934297,1.0464383,-0.017901957,1.0749117,-1.2056766,0.49328387,0.2841581,1.5523231,-0.3572044,0.5325679
covid_1_ACCTACCAGATACGAT-1,0.66801226,0.78050363,1.836192,-0.1837902,0.18848397,-1.0428425,0.8894159,0.84720314,-1.6679829,1.0316329
covid_1_TTCGCTGAGAGTTGCG-1,-0.0004877448,0.15492335,0.28022173,0.66486466,-0.29968894,0.9958419,0.52731264,1.3426392,-0.44695672,-0.9510685
covid_1_TCCTGCACAACCGATT-1,0.490331,-0.43302637,-0.37800565,-1.1215583,-0.229116,-0.30894613,-0.05330386,-0.90082276,-0.43828687,0.65454006
covid_1_CATCGGGTCTCTGACC-1,0.060849488,-0.3758505,1.3354272,-0.19846362,0.42429584,-0.60229146,0.014442545,0.1904366,-1.3652728,-0.8755951
covid_1_ACGATCATCGCCTTTG-1,0.7595449,0.1597251,0.5172479,0.34010804,-0.5042511,0.8879787,1.2093085,0.97059715,-0.09078361,1.1798021
covid_1_CCATCACAGAAGAGCA-1,0.3796022,0.5571487,0.23361157,0.9263352,0.44356477,0.4841776,0.15264127,1.5785303,-1.861851,0.38540173
covid_1_TACATTCTCCGGCAGT-1,0.35724002,-1.7646161,-0.4650584,0.42355192,-1.121049,-0.17495018,0.21399444,1.5722879,0.6711556,1.6514688
covid_1_ATCCCTGGTTCGTGCG-1,0.8832649,0.41358387,-0.24432413,1.4904906,-0.30536112,-0.42514217,-0.30991808,-0.81502473,0.95364785,0.3320378
covid_1_CATTCATTCTCTCGAC-1,0.010411561,-0.978887,-0.3653081,0.9217465,-0.5955791,0.4819702,0.4316483,1.5318087,-1.2017365,0.4806121
covid_1_TCTTCCTAGGTACTGG-1,0.65430397,0.60714585,-0.19295838,2.0328946,-0.598398,0.38159984,0.40590593,-0.36239684,0.26461935,0.5932201
covid_1_CTCCTCCAGTCGTTAC-1,0.92102754,-0.03937149,0.6305969,0.41162193,1.126951,2.2318206,-0.07825626,-0.889243,0.038651492,0.9892825
covid_1_CTCATTAGTGGTCCCA-1,1.6293025,1.2625576,-1.6041002,0.73056114,-0.14451823,0.01401484,0.6257555,-0.24873626,1.542206,-1.0450784
covid_1_CCCTGATCACTTGTGA-1,0.93231183,0.4994275,-1.1308993,1.0312465,-0.51228154,-0.8872831,0.6584331,0.59507996,1.5305879,-0.3802458
covid_1_TATCAGGGTGCGAACA-1,-0.43644553,-1.3583486,-0.81587636,0.6291965,-1.0033325,2.5559955,0.13959822,-1.7675487,-0.7772869,0.05451143
covid_1_ATTACCTAGAAATGGG-1,0.24461526,-1.5895821,0.53252137,0.7865063,1.3191538,-0.109564185,-0.08477024,1.8127441,-0.7189814,0.28988212
covid_1_CCTATCGCAGAATCGG-1,0.2315374,-0.3310486,0.11946225,0.36793554,0.3321731,1.264626,-0.43357104,1.2845858,-2.2668974,-0.27383292
covid_1_TCATGCCAGGGTAATT-1,-0.6477472,0.82395506,-0.37659425,1.4201452,0.4969471,0.5604719,1.013269,1.0295365,-0.55863833,0.32875133
covid_1_CAGGGCTCAGGAACCA-1,-0.32978278,-0.40730757,0.13478398,1.7050964,0.08979167,-2.5126767,-0.62299895,1.320533,-2.1130037,1.022877
covid_1_TGGGATTAGATTAGTG-1,0.9240023,-1.0039016,-0.25210488,0.3592167,-0.027130008,1.1694108,0.061517004,0.38773918,-0.91346776,0.8128923
covid_1_TGAGCATCATCGCCTT-1,-1.0206287,1.1966791,0.31038126,0.9887465,-0.55030787,0.41086936,0.7436177,1.6437633,-0.98159444,0.15045905
covid_1_GCAGCCAGTCAAATCC-1,0.6353757,0.9419874,-0.29654387,-0.64428234,-0.27611527,1.5274769,0.81439316,0.92397606,0.8526764,1.0043107
covid_1_CAGGGCTAGGCATCGA-1,0.9296473,0.2406993,-0.4083668,1.2566506,-0.17633918,-0.6973156,-0.9496018,-0.85314095,0.6295458,-0.29340136
covid_1_CAGAGCCAGCATGGGT-1,-0.937779,-2.9749637,0.33078393,0.22937846,0.06933981,-1.3712498,0.21638158,0.10939634,-1.998816,0.3653419
covid_1_AATGGAAAGTAACGAT-1,-0.59239537,0.46567547,-0.21349406,0.45461893,0.17953776,1.163153,0.46486777,1.17325,-1.0521891,0.21467996
covid_1_GTCAAACGTGACAGCA-1,-1.1670029,0.3219267,2.386013,-0.61986053,-0.40407562,0.16833934,-0.61849475,0.119686246,-1.106854,1.6596799
covid_1_GCAGTTAGTAATACCC-1,-1.0471771,-2.0583434,0.0694572,-0.25868237,0.13449724,-0.57023203,0.26746175,-1.5989283,0.27211753,-0.6456915
covid_1_ATTCATCGTACACTCA-1,0.42315596,-0.47419184,0.2475078,0.46418357,0.11198701,0.25963777,0.72614515,1.6490529,-0.02913262,-0.26773417
covid_1_TTGGGATCAGCAATTC-1,-1.1571941,-6.034622,1.1112449,1.9339925,-0.25365555,-1.0357214,-2.315794,-1.793923,-1.3185248,0.99495006
covid_1_TTAGGGTAGGGCATGT-1,-0.39269,0.44747,0.011557281,-1.1748235,-0.76237077,-0.61508894,-0.19088876,-0.47854626,1.3135087,-0.14373481
covid_1_CGGGACTAGTCAGGGT-1,-0.9612551,-1.9523844,1.8798732,0.7229365,0.2706552,2.1779943,-0.8742659,-1.2376164,0.2890027,1.2982932
covid_1_TTGAACGAGTGGAATT-1,1.6257898,0.20700812,-0.29803652,1.7973663,0.572675,1.4080666,-1.7839707,-0.94829357,0.92080534,1.083862
covid_1_AACCAACGTCGGTACC-1,1.3401899,0.41187882,-2.1232965,0.6266285,-0.3921575,0.50186074,0.089627825,0.29180336,1.7145443,0.065226674
covid_1_GGAATCTCAGATCCTA-1,-0.3238371,0.2646731,0.49461243,0.6350527,0.592627,0.6077287,0.33918458,1.8652616,-0.035901815,1.0832802
covid_1_TGGGCTGGTGCAATGG-1,-0.8338643,-4.0984178,0.12572747,1.5623156,-0.6152789,-1.0554906,-1.1610923,-1.0526954,-0.060179383,1.7138343
covid_1_CGTAATGTCGTCAACA-1,0.4393432,-0.2190364,-0.26280814,-1.3727977,1.3595719,0.13171351,-0.64073133,-1.2037479,0.9458915,-0.4693762
covid_1_AGACTCATCCGTAGTA-1,-1.9275329,0.36756986,1.1110648,0.9397789,-1.3497443,-1.596099,0.48728397,-0.107539535,-0.3124116,0.17390257
covid_1_TTTACCACACGCGCTA-1,0.33727348,0.20532683,0.7220353,-1.5828629,0.15142034,-0.51232374,-0.030639865,-0.7891301,-0.18112901,-0.7579514
covid_1_ACACTGATCTCTCAAT-1,-0.3001421,-0.87261647,-0.25469893,0.34802032,-1.216037,0.7904576,0.7508859,1.1889263,-0.4957119,0.95346403
covid_1_TCCGATCAGACTAAGT-1,-0.39845747,-3.7883945,-0.23422894,1.0885552,-0.9702812,-0.91250384,-0.87213266,-0.6713201,-0.1536549,1.7582324
covid_1_GTCATGACAGCGTATT-1,-0.33919746,-1.3616652,0.7016612,1.2720723,-0.39434797,0.3336718,-0.5945641,1.9366461,0.01970772,0.5978929
covid_1_CTCCATGGTCAGGCAA-1,0.29974467,-1.1012976,1.3832935,0.21327883,-1.6615124,-1.7924489,1.0015143,0.46828914,-0.12963876,-0.6250025
covid_1_TTCCAATAGAAGTATC-1,0.35941654,0.32630825,-1.8549734,0.56379426,-0.26283836,0.100969255,-0.5168704,-0.16508257,0.87138176,0.33930802
covid_1_TCATGGACATGAATAG-1,-0.544015,-0.04553084,0.5369921,0.82186115,0.1634035,0.14046311,0.434125,1.8371382,0.1186727,-0.26946425
covid_1_CTCAGGGAGAAGGCTC-1,-0.8915737,0.09215954,0.51899254,-0.008842766,-0.8264982,-1.3188326,0.11367763,0.37131304,-0.6007414,-2.2041798
covid_1_TTAATCCCAAGGCGTA-1,0.75907254,-0.7144747,-2.0945852,1.0638119,-0.27499905,-0.16959381,-0.45459548,0.9553405,1.5899042,-0.28959513
covid_1_GGGCTACCACTTGACA-1,-0.22838527,1.2799016,0.42288586,0.24709809,-0.07442848,0.23769778,1.877118,0.93386304,-0.40308997,-0.18433678
covid_1_GTGCTGGTCTGGGTCG-1,-0.4911221,-4.11946,-0.44759324,1.4571787,-0.84013796,-1.3431123,-1.1647179,-0.7002255,0.20281628,0.8520822
covid_1_GAGGGATTCGAACGGA-1,1.0737531,0.15261763,0.5646353,-0.500166,-0.783026,-0.46983325,-0.18230075,-2.4568615,-0.43253478,0.41482317
covid_1_AGTTCGACACTATCGA-1,2.0730846,0.44549668,-1.4273376,0.6016965,0.51219887,0.58130467,-0.31956193,-1.1340328,0.81703436,-0.43985975
covid_1_GTGTAACCATGAAAGT-1,-2.1351316,0.93567383,-1.0906613,-0.1887939,-0.67335546,-1.5124847,0.57051784,-0.020563483,-1.6576211,0.006692469
covid_1_AACACACTCTGAGGCC-1,-0.5577927,-0.31983292,-0.27758217,0.7578187,-1.2520396,-0.63650036,-1.0535959,-0.067136645,-1.774049,-1.2868162
covid_1_GACCCAGAGTCAGCGA-1,0.48462492,0.40515524,-0.48262352,0.9757613,0.18646966,0.8287245,0.45263916,1.1159292,-1.5508964,-0.167112
covid_1_GGATCTAAGGGATCTG-1,-0.7044613,0.43929195,-0.5387471,-1.4408983,0.6575995,-0.2020672,0.80343306,0.49209976,-0.46805045,2.121122
covid_1_CGGCAGTTCCAAGCCG-1,-0.03389877,-0.3580047,1.3198037,0.77229655,-0.0994549,0.15458012,0.9996275,1.1879672,-0.6900177,-0.6044464
covid_1_CTTCGGTTCAATCCAG-1,0.6263038,-0.101156265,-0.20344552,0.37296534,1.1530352,1.501266,0.83701086,0.29205334,-1.0475798,0.07374883
covid_1_ATCACAGCAACTTGGT-1,-0.29192036,0.45307612,-0.24799497,-1.2887094,0.6968362,-1.4786297,0.13413385,0.92344123,-0.72101617,-0.37899315
covid_1_ATTCACTTCAGCAATC-1,0.3857419,0.37878728,-1.8895525,1.082846,0.26986438,-0.67120683,-1.2816948,0.23994374,1.980653,-0.2283603
covid_1_TCCCACACACGTGAGA-1,-0.53216106,0.86909723,0.7546333,-0.0028172731,-1.0726432,-1.4346591,1.3203348,-0.06080699,-0.414744,0.04440314
covid_1_GAATAGACACCCTTGT-1,-0.3428095,-4.3616724,-0.13288233,0.9925132,-0.19703344,-0.9655571,-0.8588089,-1.263693,0.01213434,1.3593906
covid_1_TTTGGAGAGTTTGGCT-1,-0.03128898,-0.06054373,-1.0330323,-1.5474043,0.74259776,0.021624207,-0.45571128,-0.275797,0.6174867,0.17162979
covid_1_CAGGTATCAAAGGGTC-1,-1.0156655,0.012271106,-0.8657092,-1.2891269,0.51511735,-0.5531988,-1.7196075,0.27477133,1.2641395,-0.8309039
covid_1_ATCCACCAGGTCCTGC-1,-1.419143,-1.2150626,0.16245034,1.187453,-0.18727183,0.13213956,-0.33057037,1.7423682,-0.7876396,-0.040341914
covid_1_ACACGCGAGTTGGCTT-1,0.5095243,-0.56754017,-0.12639073,-1.5347823,0.46129912,0.30011046,-1.3207926,-0.3886981,0.5876244,0.12437856
covid_1_CTGAGGCCAGGACTTT-1,0.5875702,1.8373669,-0.6003735,-1.1895653,0.4184491,0.044787228,-1.2136204,-0.0522002,-0.5445852,1.9380722
covid_1_TCCTTCTAGCACTCAT-1,-0.07229286,-0.35225815,0.48548278,0.19126213,0.6545867,0.6844498,1.2382941,1.0521634,-0.9275422,-0.5334743
covid_1_TAACGACAGCCTTCTC-1,0.79205567,-0.3219061,2.4255888,0.111626446,-0.45237935,-0.9879323,0.83041775,-0.90967095,-0.92708254,-0.0987097
covid_1_GGGACCTGTGGAAATT-1,0.9517766,-0.83846945,0.92999375,1.2960712,-1.3379459,2.7102852,-0.5533696,-2.0452666,-0.2954366,-0.3801129
covid_1_CGGGTCATCATTGGTG-1,0.33821929,-0.1563415,-0.0850905,1.5631639,0.68592787,0.7777797,-1.4052004,1.4122432,-1.7605523,-0.4016378
covid_1_AAAGTGAAGTACGAGC-1,1.1360381,-1.2593433,-0.22498074,0.41633248,-0.30362803,0.761925,1.3900561,0.3394667,-0.36667952,0.11082429
covid_1_GATAGAATCATGCCAA-1,1.0238407,0.09380436,-1.4709138,1.0790708,-0.90055865,-0.6823896,-0.1536775,0.06314671,1.3140546,0.042772178
covid_1_TAGGAGGCAGTTTGGT-1,-0.13368827,-0.38592356,-0.06527093,1.2893242,-0.08404962,0.4108464,0.27749464,1.8513827,-0.30567735,1.0388961
covid_1_CATTCCGGTCTCCCTA-1,-0.09643727,-1.4044658,0.43440542,0.6090944,-0.39173576,0.5416485,0.632239,1.6337178,0.14091168,-0.19509542
covid_1_GTGTAACGTTGCTCCT-1,-1.4841006,0.04943922,1.7608756,0.4742521,-0.7425534,-1.0496523,-0.40231764,-0.55171907,-1.3432577,0.86105466
covid_1_CCCTCAATCTGGAAGG-1,0.14728934,-0.027854681,-0.03872007,0.28905392,0.28563958,1.2062535,-1.3120605,0.6368333,-0.76941,0.3264892
covid_1_CATGGTAGTCACTACA-1,-0.13771015,-0.14151084,-0.63815093,-0.8708088,-0.04388249,-0.547094,0.07053782,-0.18963313,-0.9533856,0.24371159
covid_1_TGAGACTGTGCTGATT-1,0.83860147,0.08055791,1.5291686,-0.5034874,0.799522,-0.50541914,0.73307836,0.53097,-0.74180937,0.43721622
covid_1_GGAGATGAGAATTCAG-1,1.6250029,-0.0009582639,-1.2539,0.6457752,0.18755643,-0.094476044,0.04993852,0.5961014,1.6770744,-1.3475875
covid_1_AACAAGAAGGTCGTCC-1,1.9737105,-0.87634903,-0.2362363,0.81491256,0.17533903,-0.4138074,-0.7376996,0.48379368,-0.18500301,1.879339
covid_1_GAGGGATAGCGATGAC-1,-1.0770774,-1.3075515,0.954317,1.3796216,-0.12836337,2.0433636,0.44582894,-1.4980708,0.30673665,2.259065
covid_1_GAAGAATAGACTCTTG-1,0.44223696,-0.54193497,0.39176366,1.110734,0.09830837,0.593564,0.012620897,1.6225215,0.18964309,-0.02207625
covid_1_CCGAACGGTGTGAGCA-1,-1.810066,-1.5793469,0.5471457,-0.35289234,0.28868204,-0.29101497,0.14513439,0.3763888,-1.3491447,1.4678266
covid_1_TTGGATGCAGTCGCAC-1,1.2148767,0.5574533,-1.499724,0.7382921,-0.5413952,0.22476143,0.64414835,-0.6210365,1.5408485,-1.4848202
covid_1_CTCATGCCAGGAATCG-1,-0.391154,0.46789098,1.3831547,-0.00048983097,-0.403588,-0.92511964,1.3972658,0.2942816,-0.05709988,1.5545393
covid_1_CTCAGAAGTCTGTGCG-1,1.4621804,0.013097227,-1.0202023,-0.8727257,-0.68492156,-0.13817012,-0.17616582,0.12597501,0.99681497,-0.1511544
covid_1_ATGGGTTGTCTGATAC-1,-1.7130513,-1.1299131,0.0058120787,1.0120147,-0.14811015,0.15403008,-0.49669826,1.9827402,-0.34343478,0.008432329
covid_1_ACATGCAGTTCTCACC-1,-0.5153709,0.32012868,0.050319433,-0.19562715,-0.35482937,-1.5875105,1.1766738,0.09925544,-1.604698,-0.8441056
covid_1_GTGCTGGCAAGAATAC-1,0.17192054,-1.9876717,-0.39182007,-1.0285516,-0.17296132,-0.2747339,1.3827733,-1.0426384,-0.816265,0.28454316
covid_1_TAGGTACCAGGAACCA-1,2.4264688,1.3835083,0.06200075,1.6671079,0.39879507,-0.6209446,0.5798434,-0.620777,-0.3011728,0.9389426
covid_1_TTGGGCGTCTGAGTCA-1,1.8733656,-0.06556347,0.69267416,0.94915855,0.3927272,-0.36528373,-1.436008,0.5788728,0.23606342,1.1247419
covid_1_TCGGGTGTCAGCGCAC-1,-1.3587034,0.4498495,-1.607371,-1.144558,-0.5686552,0.12778431,-1.4592887,-0.40679014,-0.1678327,1.1205271
covid_1_GATTTCTCACCACTGG-1,-1.1281826,0.043612897,-0.01562959,-1.7918437,0.54760426,-0.058433294,0.94580585,-1.4801155,2.2111888,-0.50568295
covid_1_GTCCCATCACGGCGTT-1,0.15232241,-0.14118123,-1.61455,-0.23272757,-0.91959435,1.8593458,0.17390922,-0.78313816,0.8151834,-0.3169173
covid_1_AAAGTGAGTGAAGCTG-1,-0.36682087,-4.658159,-0.7773198,1.1426796,-0.2394323,-1.2764109,-0.76042104,-0.9737524,-0.6322638,1.2664547
covid_1_TGACTCCAGCCAGACA-1,-0.8325661,-4.179384,-0.6676359,1.2399151,-0.14524683,-1.4578649,-0.8046631,-0.90742385,-0.9393269,0.9775585
covid_1_AGTCATGAGTCCTGTA-1,-0.40989858,-0.4750892,1.4494098,1.8280567,-0.39319748,2.3594844,-0.9355774,-1.8723167,0.57848763,1.2123781
covid_1_TGTTCTAGTTCTTGCC-1,-0.3244651,0.1000644,0.6813427,0.6754085,0.93096465,0.6475721,0.59932864,1.661175,0.0020676553,0.69406843
covid_1_CAGTGCGGTTTCTTAC-1,-2.5852568,0.46487498,0.7909652,-0.39315873,-0.34203154,1.0065951,0.03907577,1.5726203,-0.27946112,0.12789464
covid_1_TTACGTTTCGTACACA-1,-0.22696012,-0.1977078,-0.4929196,0.29559493,-0.67388344,1.7182021,-0.4990346,0.59476763,-2.7710776,0.28488415
covid_1_TGAGACTTCCTTACCG-1,0.09539765,-1.3877673,0.032693595,0.19800276,0.88830715,0.6196606,1.2161667,1.3019811,0.61564785,-0.16598284
covid_1_TGTAACGAGACCATTC-1,1.3674628,0.05771935,-0.7975422,1.8500029,-0.11746944,0.556461,-0.24260098,-2.2299466,0.4814822,-0.62375176
covid_1_TGGTAGTGTAGCCAGA-1,2.1660042,-1.6472377,-0.08839828,0.70725274,0.6048141,0.07625526,-0.6523636,-0.27747786,-0.10556197,1.2591715
covid_1_CTGTGAATCTACTATC-1,-0.24638611,0.55401134,1.3988112,0.33349633,0.10050075,-1.0590581,1.5152854,-1.0870973,-1.7902285,0.23889601
covid_1_GATTCGACATATACCG-1,-0.19190079,-0.7272976,0.36040637,0.14771116,-1.3687878,-0.67445767,1.1568071,0.1465764,-1.3688862,0.58243614
covid_1_GTTGCTCAGAGGGCGA-1,-0.23365968,-4.4442587,-0.16692531,0.9774648,-1.3208277,-0.60667527,-1.119546,-0.6595379,-0.3587893,2.3532
covid_1_AAACGCTGTGAATGAT-1,-0.47815165,0.71160966,0.9150411,1.1288289,-0.57118934,0.40532357,0.8929224,1.3594228,-0.44025406,0.08895743
covid_1_GCTGGGTAGATTGATG-1,-0.79050475,0.5023545,0.19182065,0.026070476,-0.79466593,-1.1752536,0.6726994,0.26775837,-1.0143926,0.453614
covid_1_CCGTAGGAGGGTTGCA-1,1.3876615,-0.68758243,-1.2996787,0.72230065,-1.1065996,0.04325366,-0.46741953,0.31141877,1.3927591,0.18361181
covid_1_ATTGGGTGTTGGATCT-1,2.2497191,0.12336394,-1.6348063,0.16776001,-1.5460275,0.67570853,-0.62179315,-0.56223726,0.4240444,-0.2762028
covid_1_TACCTGCGTCTCGGAC-1,1.7967227,-0.42872852,-1.1539289,0.40922105,0.5123913,-0.32400382,0.06552003,0.40204567,1.3823142,-0.33574045
covid_1_AGATCCAGTCGCATGC-1,-0.9085377,-0.12776197,1.6649501,-0.6422499,0.3286636,-0.2434871,0.7164641,0.5042287,-0.26438075,1.5383027
covid_1_TGATTCTCAGGTACGA-1,-0.25443488,1.0923072,-0.36675805,-0.19630206,0.25637364,-1.2505729,2.2202435,-0.35208952,-1.704318,1.3017609
covid_1_ACGTCCTTCGCACGGT-1,1.755227,0.45203304,0.08565691,0.8928778,0.4751454,0.8244079,1.1254532,0.6960541,-0.21971849,-1.2543529
covid_1_CTTCGGTAGGACTTCT-1,0.33889598,-0.22962067,2.4703853,-0.49033958,-0.6249292,-0.6569692,0.4326387,0.05762613,-1.3939593,1.6959162
covid_1_GAGAGGTGTTACTCAG-1,-0.6982979,1.4637243,-0.07993214,-1.3658723,-0.32039487,0.2792849,1.1016331,-0.6291188,-0.12133551,1.3719382
covid_1_GCCAACGCATAGTCAC-1,1.9061589,-0.067474276,0.14232662,1.7293597,0.551283,0.65533996,-0.6160424,-1.0081917,0.36084676,0.17728525
covid_1_CCTCCTCAGCGTGTTT-1,-0.0392372,-1.8465902,-0.08923887,1.1211959,0.7959514,0.19753456,-0.12631029,1.3251443,-0.89843905,0.2735774
covid_1_GCGGATCGTCACTAGT-1,0.37013292,-0.8595129,-0.07693967,0.3286487,-0.2593447,1.0476689,-0.10516376,1.2129196,0.22848901,0.33850425
covid_1_TATTGGGAGGTAGGCT-1,0.1151185,0.49903274,-0.20536622,-0.60848415,0.7722681,1.9527282,1.2056106,-0.074015975,-1.0660063,0.21422601
covid_1_CCTAAGAGTTACCGTA-1,0.6409902,-0.23480618,0.081394464,0.36618125,-0.5449199,0.8668786,0.53161883,1.240067,-1.3994112,0.2263186
covid_1_CACGAATAGACTTAAG-1,1.0707096,0.3927164,-2.1299706,1.0088542,-0.20645905,-0.5104265,-0.89126885,-0.47478735,0.6394986,-0.11328983
covid_1_TCAGTTTAGGAGTCTG-1,-0.8831914,0.06999704,1.0310491,-0.009340525,-0.30130225,-0.87231636,0.2864864,-0.56829286,-1.2164421,1.2449924
covid_1_ATCCTATGTTCTTGCC-1,0.9478403,0.09841955,0.8354074,1.0366987,0.6180094,1.0002005,1.272905,0.79936004,-0.44425437,-0.43334222
covid_1_TACCGAAAGAGGATGA-1,0.569196,0.08611536,-2.3156369,1.0762863,0.87417036,-0.60624754,-0.10174576,0.39601988,1.0329404,0.42812043
covid_1_AGAACCTCACAATGAA-1,-0.5367541,0.60907495,0.08865532,1.2383941,0.23717335,0.6551917,-0.11627222,1.4077665,-2.2047882,-1.0135645
covid_1_AGGCATTCAGATTAAG-1,-0.082521014,-1.9204572,-0.5317703,1.0355822,0.470097,0.34825003,0.4962075,1.1521468,0.011910092,-1.8292433
covid_1_CCGTTCAAGCGTACAG-1,0.6902307,1.1057663,-2.687535,1.1284959,0.54698855,-0.61299527,0.5550419,-0.066108346,0.81274223,0.15835047
covid_1_ATTCCCGAGCAGAAAG-1,0.06729132,-2.3481297,-1.1416351,1.4147512,0.7042323,1.0902195,0.14692158,-0.23646319,-2.3172994,-0.79115033
covid_1_TTCGGTCAGTCGCTAT-1,-1.5724256,-0.2567774,1.7698449,0.6181154,-0.059517987,-0.9480127,0.2707919,-0.5668653,-1.34775,1.6057756
covid_1_TTCTAACCACGGATCC-1,0.17103976,-0.30944997,-0.06302142,0.9182093,-0.022037849,0.70037454,1.1120335,1.2116857,0.3039338,0.849206
covid_1_GTTGTGAGTGCAATGG-1,0.27311385,-0.22255066,1.1090723,0.9250537,0.052912578,-0.08109796,0.43657756,1.8375745,0.24550033,-1.0024346
covid_1_CAACCTCTCCCTTTGG-1,0.2069416,0.38391697,0.29718265,0.5399045,-1.076963,0.2988174,0.8962327,1.3749266,0.118492484,0.9551716
covid_1_CCTAAGAAGCGCATCC-1,-0.37935024,-4.8486214,-0.2630719,0.98747003,-0.51686543,-1.0963207,-0.20090353,-1.279184,-0.14500144,0.95036304
covid_1_TCGTAGACACGCGTCA-1,-0.1029908,0.40479624,-0.33968908,-1.0093876,0.5211504,-0.35519564,-0.9775078,-0.586743,0.92686903,0.12818563
covid_1_AACAAGAGTACAGAGC-1,1.0565407,-0.52776855,1.2791995,-0.9546926,0.26480305,-0.24693839,-1.8336419,-0.47208095,-1.0865043,1.155719
covid_1_GTCGTAAGTGGAAGTC-1,-0.60613567,-4.167265,0.08183077,1.2229277,-0.6038202,-1.1599298,-0.7438431,-0.6828774,-0.20050108,0.8105209
covid_1_TGCGATATCGTTCTAT-1,0.009454548,-0.9592244,0.07259792,-1.3252404,0.9619469,-0.987358,1.1822929,-0.8371638,-0.43639097,0.17857993
covid_1_TGCGACGCACAGAGAC-1,0.5964471,0.9272349,0.51185477,0.30364466,-0.6445017,0.28809696,0.88996696,1.844154,0.6449629,0.12764877
covid_1_ACTGATGTCTGGCTGG-1,-0.5266145,-1.4530998,0.1599507,-1.3381059,0.84726447,-0.6495142,0.15184632,-0.12709439,0.03530356,0.34332484
covid_1_CGAAGGACAAATCAAG-1,1.0296307,1.4435194,-2.3837063,0.33428872,-0.81896377,-0.3378271,1.0102922,-0.11700392,0.76461756,1.3535419
covid_1_TCTATACCAATTTCTC-1,-0.3224383,-3.5722246,-0.5235585,0.9844012,0.4334913,-0.9564761,-1.605335,-0.32572114,-0.9131527,1.4071639
covid_1_AGTGACTTCGACATAC-1,0.17442155,-0.20080006,-0.72625077,-1.1788926,-0.08704332,-0.7303554,0.38420767,-0.4243878,-0.3255184,-0.12461877
covid_1_TGTAGACAGGTACTGG-1,0.50443923,0.86822736,-1.2656504,0.6684916,-2.2597065,2.1633978,0.89316976,-1.3058611,-0.85961735,0.42383313
covid_1_GGTGTCGTCTTCCCGA-1,0.6231953,0.0621742,-0.23894466,0.0048297644,-0.26686233,1.3091563,0.25837052,1.060385,-0.6917472,0.3382116
covid_1_ATTGGGTAGGCAGCTA-1,0.77225655,0.37502062,-1.9910884,0.82135165,-0.33779854,-0.3326739,-0.53319144,0.8572898,1.0673801,0.14818281
covid_1_TAGATCGCACGGTAGA-1,1.8050103,0.37344056,-0.29684702,0.71042037,-1.6376613,0.11222732,0.13769987,0.17408633,1.0489736,0.007774234
covid_1_CTCCACAAGCCAGTAG-1,0.52676564,-2.93534,-1.0411456,1.6430646,1.5311999,-0.5109745,-0.9394129,0.06723797,-0.064749315,0.6662921
covid_1_GTTGTGAGTCCAAATC-1,1.1907399,0.89426506,-0.11032282,0.9919683,0.50029254,0.9730034,1.4187502,0.43986833,-0.9218503,-0.057773232
covid_1_GTGAGGACAAACGAGC-1,0.37711388,0.27028418,-0.93335307,0.20757526,-0.13010123,1.0543141,0.98483837,0.66436505,-1.4389901,0.92354643
covid_1_TGGGCTGCAGCTACCG-1,0.09660691,-0.48767614,-0.5097744,-0.59214866,0.008519873,-0.91590035,0.64807475,-1.2913615,-0.08670865,0.2618116
covid_1_GTGCTTCTCGCATAGT-1,0.9384512,0.13052672,-0.5435342,1.3351182,-1.4016163,-0.04809165,-0.1362997,-0.3874544,-0.18361416,0.4495558
covid_1_ACTTCCGTCCGCACGA-1,0.15395701,-0.39193088,-2.164837,1.1785117,0.15689169,-0.39267862,0.06877229,0.37594318,0.9836401,0.10491586
covid_1_TCACAAGGTCCTCAGG-1,-0.9569874,0.74889326,-0.2732026,0.74641883,-1.1540012,0.3480196,0.3826593,1.5989724,0.70206857,0.23308921
covid_1_CGGTCAGCAGTGCCTG-1,-0.5616651,-4.0270524,-0.45125613,0.66852,-0.4314738,-0.42564642,-1.0518795,-0.76793635,-0.3692175,1.6118245
covid_1_TTGGGATAGTGAACAT-1,0.28671372,-0.39677745,-1.2033173,-1.5207465,-0.14154816,0.037685573,-0.14143243,-0.673288,-0.44102344,-0.07375836
covid_1_TACGTCCAGGAACGCT-1,1.4167999,0.2573651,-1.9518803,0.45125306,-0.31745738,0.1949549,0.016410373,-0.2915038,0.8168584,0.29984474
covid_1_CGGGCATAGAGGCCAT-1,-0.24496263,-0.11894056,0.4110712,0.9748322,-0.12371791,0.67428666,-0.18555582,1.694441,-0.40280142,0.4419192
covid_1_GCACTAAAGTATGACA-1,0.72184944,0.07194957,0.54102075,0.6458193,0.45379716,0.65906423,0.17038146,1.5060855,-0.25972566,-0.27345145
covid_1_GAGTCTAGTCTTACTT-1,-0.439022,-0.38435626,0.5163617,-0.07760543,-0.48964065,-0.419088,1.0298494,-0.30479133,-1.5414522,0.39946586
covid_1_ATTACTCAGGAACATT-1,-0.23712665,-0.29662126,0.5848012,0.48470724,-0.49871808,-1.0566756,-0.29707104,0.017691493,-0.48105505,-0.22687149
covid_1_AACAGGGTCATGTCAG-1,0.13515407,-0.43660462,-0.88063276,1.4076601,-1.4500124,0.06287032,1.1596074,1.0740436,-1.7814887,1.1001587
covid_1_GCGGAAAAGCATATGA-1,-0.8701213,1.599424,0.1834206,0.9836525,-0.40985996,0.50370306,0.22037697,1.7651007,-0.83067703,0.7497141
covid_1_TGAATCGAGTTAACGA-1,-1.0057597,-0.26008382,-0.023329139,1.0422503,-0.8887446,0.69845504,0.3553893,1.5587451,-0.24394739,0.24574602
covid_1_CTTAGGACAACGAGGT-1,-0.10390156,-0.09314768,1.3569623,1.6558322,1.2753339,0.32440847,-0.60137147,1.9092829,0.3395651,-0.40499675
covid_1_TCGTCCAGTGCAATGG-1,1.5702212,-0.4433962,-0.14802781,-0.18543857,-0.9926732,1.305731,0.6825928,0.5476681,-0.37213627,0.51882607
covid_1_ACCAACATCTGACCCT-1,-0.20340651,0.7517636,-0.7754688,-1.8202412,0.69139254,-0.2857114,-0.20475715,-0.0645566,0.8767562,-0.53660595
covid_1_CGAAGGACACCTAAAC-1,2.2278848,-0.58502716,-0.48455676,0.89967585,1.3475232,0.7914933,-0.33047083,-1.3474771,0.4619093,0.87230396
covid_1_GATTGGTGTCGCATCG-1,-1.6773503,2.057435,-1.4992288,-1.6602602,-0.08232803,-0.33899927,-0.5620394,0.4279958,-0.6028359,1.0717816
covid_1_TTCTGTACATATCGGT-1,-0.12147289,-0.07401165,-0.97366,0.17685544,-1.2505915,1.2256999,0.83047724,0.52863514,-1.8610325,0.8962307
covid_1_GTAACCACAGTGGCTC-1,-0.063497245,0.5288871,1.0823436,1.2626536,0.046246514,0.40725112,0.9597317,1.1727626,-0.847517,-0.8243079
covid_1_ACTGTCCTCCTTCGAC-1,-0.11947136,-0.54273504,-0.16702814,0.21354419,0.16424511,0.7789011,0.299006,1.2596993,-0.75339425,0.4078074
covid_1_AAAGGTAAGCCTAACT-1,1.165666,-0.044618517,-1.8735232,0.37994957,0.45050734,-0.16080487,-0.21032777,-0.35649288,1.6169901,-0.9593588
covid_1_GATGCTAGTCTGCATA-1,0.19865102,-0.021738887,0.40112385,1.0026288,0.80041856,0.9748414,-0.26386178,1.2138021,-2.2125897,-1.8364655
covid_1_CGTGATACAAACCACT-1,-1.2525246,0.46195018,0.36391243,0.2591039,-0.60944325,-1.530253,0.8708682,0.6847422,-0.57190716,0.7480014
covid_1_ATTGTTCCAGGTCAGA-1,1.2631103,-1.2489078,-0.109093904,0.62100005,1.2298231,0.54295415,0.6794208,0.6161711,-1.5594056,-1.699994
covid_1_GTGAGCCCACAGCCAC-1,-0.19833678,-0.25594544,-0.7568791,0.60156596,0.059338316,0.85507345,0.9309877,0.718349,-0.61959875,0.36864978
covid_1_CAACCTCTCAAACCCA-1,-1.213093,-0.12993965,-0.60522544,-1.0312634,1.8721468,-0.37700915,-0.50132346,-0.8891417,0.59944,-1.8776196
covid_1_AGCCAATCAAGAATGT-1,-1.4710042,2.1000876,-0.9067153,-0.96967417,0.8358894,-0.61469924,-1.4347181,0.20326364,-0.9451499,1.1730325
covid_1_ATTTCTGGTGTACGCC-1,1.4613849,-0.63977873,0.66876984,0.45078123,1.0740291,1.0959592,0.4522643,0.6426158,-0.6777586,-1.3132733
covid_1_GTAATGCAGTGCCAGA-1,-0.8426656,-0.0007289052,-0.861465,-0.92018175,-0.9222257,-1.1150156,0.45114154,-0.13249516,-0.7616298,1.919002
covid_1_TTCACGCGTTGCCATA-1,-0.3071218,0.36565936,1.040891,0.84619653,0.6343216,0.31495225,0.18182385,1.9543191,-0.72911406,0.0179894
covid_1_CAGCCAGAGAATTGCA-1,-0.18247885,-0.28713953,0.80144405,0.84319985,-0.19561854,0.18299925,0.5137287,1.8496108,0.87205625,0.80267143
covid_1_TTCGCTGAGTCGTCTA-1,-1.4127488,1.865611,-1.7432848,-1.0722091,-0.035739228,-0.028139234,-1.5065408,0.15447962,-0.66920376,2.4105473
covid_1_GTAGATCAGGTCCCGT-1,-1.347769,1.0688328,1.5622286,0.81542146,-1.566016,-1.532678,0.066484235,0.41666633,-0.25262007,1.8076634
covid_1_ACTATTCCATGGCTAT-1,-0.56608135,0.122041225,0.22479925,1.187457,0.28080976,0.23681152,0.060350005,1.6260376,-1.6147585,-0.52591205
covid_1_AGACAAAGTCTTCCGT-1,-1.4841285,1.246363,0.4213598,0.6198522,-1.3702832,-1.2955197,0.5144478,-0.24549043,-0.6741464,-0.23916924
covid_1_GGGCCATCATGTGTCA-1,1.5740731,0.6878836,-1.5530475,1.0872948,-0.29484743,-0.45660806,-0.034707706,-0.12187183,1.5809871,-0.80541086
covid_1_ACGGTTAGTAACCCGC-1,-1.0237558,-3.8786364,-0.64322615,1.1478063,0.3619733,-1.6355506,-0.30881256,-0.9391607,0.062249508,0.4532584
covid_1_TGTCAGATCAGCGCGT-1,-0.4051476,-0.2813341,-0.7531071,0.19352174,0.9367884,1.4564996,0.040282406,0.6256561,-0.9284866,0.5726562
covid_1_AATGAAGAGATGTAGT-1,-1.7452791,0.15077391,0.7735609,0.1269983,0.052932754,-0.8471917,0.77681464,0.4490643,-0.5011866,-0.3448751
covid_1_TCCGAAATCAGAGCAG-1,-0.1144579,0.036821216,0.09855443,0.94483674,0.58483833,1.153553,0.91451514,0.74463564,0.199963,0.2809965
covid_1_GTTGTAGCAATGAACA-1,0.88168406,0.17464441,0.06979555,0.25419557,-0.736662,1.4267797,0.28846338,0.70612097,-1.4722867,-0.7350079
covid_1_TGATGGTTCATGGGAG-1,-0.5931228,-0.5766672,1.9173421,-0.22600327,-0.5374856,-0.8475028,0.8189199,0.6229161,-0.008168548,0.6292982
covid_1_AACCATGTCACCCTGT-1,2.1470816,1.0896204,-1.5885103,1.1808122,0.020272389,-0.25344908,-0.17588535,-0.6437913,0.05110952,0.01176846
covid_1_CTTCTAAGTAAGCAAT-1,-0.7870875,-0.22936624,-1.2041888,1.0236919,-0.8097651,1.3751956,1.6630846,0.05934286,-1.9971349,0.019349579
covid_1_ACCTGAACATGCCGAC-1,-0.54999596,-1.2163703,-0.7177373,-1.1813962,-1.3658292,-1.1234173,0.6564057,-0.37983763,0.8713821,-0.75600445
covid_1_AGGTTGTTCTGGCCTT-1,-0.8423222,1.033651,0.27069196,1.3488907,-0.42050654,0.40890384,0.19780695,1.7910986,-0.7789999,-0.36621785
covid_1_ACACCAACACAAGCCC-1,-0.5155967,0.5727183,-0.8552867,-0.3757053,-0.055006243,1.0155298,2.461588,0.28120816,0.06754692,1.5073056
covid_1_GTTGTCCCAAGTATCC-1,1.4276032,0.42967314,-1.6073848,0.56173384,0.054125175,-0.067395926,0.7045578,-0.10408735,0.47923493,0.066606045
covid_1_TGTTCCGAGCAATAGT-1,-0.32461852,-4.6236644,-0.44747955,0.89347327,-0.65693146,-0.21694368,-1.2695074,-1.2990581,-0.11505982,1.6283114
covid_1_ATTCCATTCCAACCGG-1,1.0857927,-0.15049273,-0.57002604,0.4562422,-0.30426168,1.1959344,0.66256046,0.50809133,-1.3098001,-0.16996562
covid_1_TACCCACCAGCTACCG-1,0.35762042,-0.003861785,0.13160333,0.76925576,0.121775255,0.2886067,0.3254788,1.6511862,-0.29724056,0.57516897
covid_1_AGCGATTAGCCTTCTC-1,0.24516946,0.1017119,1.0227858,0.7443495,0.058684587,1.1394832,0.2586622,1.4740837,-0.5688735,-0.9151858
covid_1_AACCAACCACATAGCT-1,0.8909944,-0.8925939,-1.2105492,0.62181175,-0.6108038,-0.20378625,-0.051581144,0.8666215,1.8393024,-1.0200928
covid_1_CCCGGAAAGTCGAATA-1,-1.3036239,1.0466938,-0.57378435,1.6818067,-0.1303004,0.7756287,0.10419557,1.4203501,-2.0334268,0.6363202
covid_1_CTTCAATCACGTCGGT-1,-1.1390085,1.1363941,-1.6470287,-0.10881275,2.9400096,-0.384297,-1.3351516,0.24472415,-1.8742583,1.5580019
covid_1_CCTAACCAGAATTTGG-1,-2.3711193,0.59036964,0.4264916,0.50852466,-0.7366794,-1.3104361,0.6484605,0.43489307,0.3834295,0.37744784
covid_1_CCAAGCGAGGACATCG-1,-0.26764733,-5.2869463,0.45469067,1.2937918,-1.202708,-0.99253535,-1.0380151,-1.4041208,-0.41416976,2.16003
covid_1_ACAGAAAAGTCAAGCG-1,-1.3996027,-0.15137121,-1.4181727,0.74072933,-1.0356733,0.36621684,-0.042747986,1.4720716,-2.215396,0.29606843
covid_1_CAGGCCAGTGGTAATA-1,1.0929866,-0.40124828,1.7940108,-0.17978102,0.48796433,-0.5641823,1.1168988,-1.204724,0.67426026,-0.067883134
covid_1_TCGATTTTCCTTGACC-1,-0.8157018,0.29611456,1.0829945,0.9387816,-0.3543316,0.26848394,0.68125653,1.963145,0.41378787,0.88436675
covid_1_GAGACTTTCTCTGAGA-1,-0.81950027,-0.09584507,-1.7222544,-0.5915022,-0.7853556,-0.53883505,-1.3943328,0.1017611,-1.1627204,1.5885798
covid_1_CGCCATTGTCAAGTTC-1,1.496222,0.91205287,-0.80810726,1.3669249,0.86394936,-0.23308353,-0.26497146,-0.4165057,1.1995223,-0.7434176
covid_1_CCAATTTGTTCGTTCC-1,-0.54354507,0.015357047,0.36649308,1.3483607,0.34024256,0.80300313,1.0809838,0.5529252,-1.8345772,-1.4471673
covid_1_GCCATGGTCAGAGCAG-1,-0.26626343,-0.42698365,0.87190115,0.5266571,-0.7740525,-0.114280164,1.4323456,1.5235124,1.3182012,0.27786297
covid_1_TCACTATAGGTATAGT-1,-0.1749335,-0.2703269,0.3594602,-0.12808591,0.17390008,-0.8665637,0.15552512,0.5902182,-1.9258394,-0.9708593
covid_1_TATTGGGAGGGTCACA-1,-0.43579465,0.4217605,2.6060693,-1.0207398,1.3536558,-0.2958417,-1.2042288,-2.0147262,-0.43758008,1.1920552
covid_1_CAATCGATCATTCACT-1,-0.08254676,-0.590386,1.2023337,1.2312616,0.37481678,0.33270842,-0.9118601,2.1874113,0.6173707,-0.59921825
covid_1_AATCGTGAGCAGAAAG-1,-0.27808744,-0.7143551,-0.77320844,0.33468533,1.5886074,1.4431562,1.0449191,0.39031452,-0.53530884,-0.53513
covid_1_AGCTTCCGTTGCCGAC-1,0.050033033,1.7540945,0.25919363,0.4425738,0.6534843,0.3984415,1.2982613,1.2321532,-1.096753,-0.48903275
covid_1_CCCTAACCACTATCCC-1,-1.1861024,-0.037966758,0.1125308,1.5357496,0.7104302,0.06342083,0.4372363,1.8156841,-0.8954916,0.5178413
covid_1_TTAATCCGTTGTAGCT-1,-0.46541438,0.2758956,0.5308062,0.5957767,-0.12113265,0.24862856,0.9232269,1.338885,-0.40628663,-0.5147072
covid_1_ACCGTTCCACCCAAGC-1,1.2023787,0.40196168,-1.5545304,0.5259923,-0.11024652,0.3724754,0.7906354,-0.28862882,1.1845602,0.5728146
covid_1_TTACCATCAAGGTCAG-1,1.5301218,0.26981944,-0.6390702,0.97879565,0.09707035,0.46178502,-0.4303291,-0.32895517,0.4551143,1.1669416
covid_1_GACTCTCGTGGCTTAT-1,-0.6872111,-0.08103819,0.72991884,0.85838604,0.4217494,0.29401392,0.7891381,1.5438316,0.23151979,-0.36693597
covid_1_TCCTTCTCAGGGATAC-1,0.23570931,-0.09917717,-0.9772693,-1.4710402,1.1044424,-0.33711052,-0.36735237,0.1751188,0.98481894,-0.54320276
covid_1_TGTTGGATCCGTACGG-1,1.1756893,-0.112879544,0.118932664,0.24298972,-0.9148148,1.8867024,0.8120876,-0.37437344,-1.7614024,-0.18796158
covid_1_GAGTGTTGTAGTATAG-1,0.7261126,0.087842405,-1.07181,0.97026336,0.113713846,1.9166316,0.85085773,0.17917228,-0.18708071,-0.09957349
covid_1_GCTGGGTTCGCTCTCA-1,1.4272356,0.091623425,-0.7026299,1.4681507,0.09652586,0.09009004,0.27773353,-0.134915,-0.40380672,1.9873954
covid_1_GTCCTCAGTCAGACGA-1,-1.3773644,-1.0626049,-0.2385751,1.2939736,0.22700816,-0.3115214,-0.1960054,1.9240451,0.72488976,0.087987304
covid_1_AGGGCTCTCCGGACGT-1,1.0780337,-0.9806379,0.58615124,0.52897346,0.14591251,1.7677331,0.91567457,0.14651132,-1.1901667,-1.2818655
covid_1_GTCCCATCATGGACAG-1,0.017246783,-0.33224082,1.375074,-0.3679762,0.08175543,-0.28582275,0.1571832,0.1553675,-1.9059701,1.3653775
covid_1_ACTGTGACAGACTCTA-1,-1.6596539,0.5769713,-2.161781,-1.1341126,0.016174898,-0.8424243,-0.89221257,0.045737147,0.23315379,-1.0130261
covid_1_GGAGGATGTCATAACC-1,-0.8749208,0.41235918,-0.6418183,1.0797083,-0.20131648,0.30386,0.75281566,1.556065,-0.26506007,-0.036194265
covid_1_TCTTTGAGTATACAGA-1,0.055223227,-0.8850312,0.87058794,0.4314729,0.38402838,1.400473,-0.3227648,1.3620764,-1.4542141,-0.28936148
covid_1_TTTCATGGTCCAGTTA-1,-0.36109596,-0.5645111,-0.85697055,0.55773294,-1.2031689,1.1304168,0.9289943,0.3833459,-0.73791766,0.6160829
covid_1_CATTGCCAGGCTCTCG-1,0.93066984,0.5594939,-1.0225955,1.6675576,-0.5081975,-0.49380028,0.33233598,-0.69680417,0.22866389,0.29029107
covid_1_TTCGGTCAGAGTGACC-1,-0.39361638,0.3906334,-1.3229164,-1.011335,0.13372703,-0.49797404,-1.0947343,-0.49197686,1.0650585,-0.46690238
covid_1_GTCTAGAGTACGAAAT-1,0.91634727,1.1715022,-0.6236588,1.8154794,-1.503526,0.17201555,0.36643302,-0.5856868,0.33355188,1.4320569
covid_1_CTTCCGAGTTCCGGTG-1,1.3816442,-0.23829512,1.4652337,1.6335076,0.23096442,-0.21512234,-1.3479551,-0.41888726,0.90841603,0.98376644
covid_1_CGGACACGTGACCGAA-1,-1.1448679,-0.90955925,0.60140395,0.496271,-0.03320086,0.41357076,0.60304505,1.7962035,-0.14982095,-0.12194657
covid_1_GATGACTCATTACGGT-1,-0.7191213,-4.83204,1.0331727,1.1586398,0.13706397,-1.146094,-1.5490085,-0.7887665,0.23882183,1.0420976
covid_1_TGGCGTGTCGATCCCT-1,1.0903125,-1.9367012,2.7634256,-0.84239244,0.8696775,-0.42722476,-1.870455,-0.4663676,-0.6768255,0.4844216
covid_1_TGCGACGTCCTACTGC-1,-0.069114506,0.12851453,1.0479099,0.0030597448,0.006676659,-1.1005551,1.033131,0.14324605,-1.6294678,0.018039051
covid_1_TTCAGGATCGGCAGTC-1,1.5158575,0.11545083,0.30650482,1.5745231,0.18011539,0.11758989,-0.26631606,-0.42861855,0.17554836,0.7613876
covid_1_GATCCCTGTAACAGTA-1,-0.31115514,-0.739483,0.08744565,0.29922092,0.7974228,0.19157454,0.9845246,1.5545509,-0.47587177,0.55551374
covid_1_TCCTCTTGTACAGTCT-1,1.9688425,0.83272016,1.3747452,1.7909611,0.8714493,-0.7990173,-1.2932626,-0.47132587,0.41348755,0.3799212
covid_1_CAATACGCAACCAGAG-1,0.3731714,-0.037577122,0.524886,0.4121219,0.61674494,0.99088514,0.34175557,1.4275528,-0.6375524,-0.53887
covid_1_CCCATTGGTGGTCCCA-1,-0.79997665,-3.9778628,-0.16693199,1.155342,-0.08964617,-1.2784729,-0.852054,-0.65868556,0.48802453,0.9577271
covid_1_TGTAACGGTAGCTTGT-1,0.59969664,0.35641915,-1.6709058,0.3975104,0.12706639,0.3086319,-0.37183592,-0.24015963,2.0878782,-0.08694756
covid_1_GTTACGACACGACAAG-1,-0.79386336,-0.26328468,-1.1706679,1.3037835,0.038434863,1.8003362,-0.42774674,0.09151149,-1.1357365,0.8673033
covid_1_AACGTCATCCCTCATG-1,-0.6111513,-4.4863415,-0.6295705,1.2654116,0.5674773,-1.5752305,0.3036896,-1.1270643,1.0107541,-0.32878935
covid_1_ATTGGGTGTTGCGGAA-1,1.4335475,0.40903878,-1.4941446,0.70984066,-0.24460804,-0.30623996,-0.21478721,0.28586137,0.59435636,-1.0247533
covid_1_GGTTCTCAGGCCACTC-1,2.2922654,-0.020927489,-1.5741494,1.0776302,0.7959982,-0.42596543,0.09854441,-0.5438695,1.1251942,-1.9047834
covid_1_GGGCTCAGTTTCGTTT-1,-1.5336802,-0.043345004,0.37751445,0.59136105,-1.0831747,-0.9282849,1.4929284,-0.112520576,-1.1348797,-0.09094119
covid_1_TTCCTCTTCTAGACCA-1,-0.012783647,0.5152819,0.15703484,1.1509925,-0.1020963,0.6347122,0.80567825,1.0148909,-1.3054911,-0.43689358
covid_1_TATGTTCCAACGATCT-1,-0.54128176,-0.66769946,0.69821954,-0.742099,0.28057522,-1.1987662,-0.23675406,-2.3921723,0.54301476,0.21632463
covid_1_ATGTCTTGTTCTCCCA-1,-1.8837972,-0.32766718,0.69450724,0.25517744,-0.91731316,-1.3776251,-0.04572802,0.5791279,-0.2165964,-0.28946006
covid_1_CGTGTCTCACAAGCCC-1,-0.30951935,-1.4422532,-0.24414866,-0.102817595,-0.6301531,-1.3120064,0.7342317,0.4006276,-1.5094488,0.56499577
covid_1_CTACCCAGTCATCCGG-1,1.2902579,-0.3294512,-0.123654485,0.45602572,-0.61563665,0.68694836,0.5987879,1.2282975,-0.52728,-0.20342863
covid_1_CTCCTCCAGCTGACAG-1,0.09400445,-0.57955754,-0.35166118,1.5795242,-0.0025181025,0.13155162,0.41088948,1.4288899,-0.83181095,-0.22827756
covid_1_GACCGTGAGGTTACCT-1,0.7780807,0.6178479,0.6313418,1.6476523,-0.10266603,0.654986,0.23161837,1.3199368,-0.28926343,0.13021314
covid_1_TGAGCATAGCAGCCTC-1,0.5153406,-1.065456,-0.34637824,0.5125787,0.42514086,0.86011827,0.24736099,1.0494735,-1.1614144,0.050376896
covid_1_AGTTCCCAGAGGTTTA-1,-1.2930086,0.6015593,0.7174392,-0.23218392,-0.3922101,-0.884601,0.6361433,-0.49602592,-1.4961741,-1.2425567
covid_1_CATACCCAGGTCTACT-1,-0.660152,0.25306773,-0.27152154,-1.2268465,0.757641,-0.3328898,-1.7098771,-0.12162459,0.31620836,-0.18890786
covid_1_GGGTCTGTCTGAGCAT-1,1.4743626,0.7833818,-1.6848825,1.063685,-0.18105254,0.15968764,0.35127026,-0.73993003,0.84481144,-0.64585865
covid_1_TGGAGGAAGCCTGAAG-1,-1.0357704,-0.8602636,1.7612106,-0.12000996,1.3541292,-1.4634725,-1.1855639,-2.8634582,-1.1731048,0.36791182
covid_1_ATCACGAGTCCAGCCA-1,-1.5365789,0.096238494,0.11327532,1.2185836,-0.30443472,1.1219808,0.21514475,1.3901418,-0.38438275,1.351332
covid_1_TCGTGCTAGTCACTAC-1,-0.43651825,0.029381812,0.6998086,0.93875444,0.09160586,0.37333626,0.77479345,1.7190417,0.40557158,0.65283036
covid_1_TCGCAGGCAGGCATGA-1,0.2664376,-1.7983491,-0.5158907,-1.4204512,-1.3621953,-0.42562997,0.36448416,-0.89505875,0.6503943,-0.00019991398
covid_1_GGATGTTGTACGCTTA-1,0.59788847,-0.27312094,0.44782338,0.27327788,-1.1866795,0.40501738,0.02055236,1.2254511,0.4386577,1.7837718
covid_1_GAATAGATCCGCTAGG-1,0.9372405,0.19527698,-0.53521335,0.9379908,-0.08474321,0.2771076,-1.3505852,0.06007397,1.4638379,1.3750103
covid_1_TGGGAAGTCGCCTCTA-1,0.21373701,-0.7699853,-0.24439307,-1.112489,1.4569097,-0.96086514,0.1998941,-0.99564755,-1.0766933,0.19085348
covid_1_TCGGGTGTCCTTCACG-1,-0.5386341,-0.040686965,0.11107972,-1.5953071,-0.73047644,-0.679911,-0.8242148,0.34771574,-0.47430268,1.152668
covid_1_TAAGTCGTCATCGCAA-1,-1.6409986,-2.8074856,-0.3677427,2.087483,0.3543102,-0.22395599,1.3995801,0.07908845,0.8087059,-2.120295
covid_1_AAGCATCGTGCCTATA-1,0.27129441,-2.7018304,0.15478623,-1.4835341,-0.27112544,0.1584729,-0.38361683,-0.25198424,-0.13400194,0.18063396
covid_1_GTGGAAGCAGAACATA-1,0.110866785,-0.40864438,-0.5128087,0.6639298,-0.39482778,1.0117838,0.4530433,0.86622834,-1.28735,0.078878164
covid_1_CATTCCGCAAGCGAAC-1,-0.43262118,-2.167626,0.30792806,0.25653023,0.08782454,0.5078461,0.6120219,1.1497285,0.4432351,0.35801965
covid_1_GTTACGAAGAGCCATG-1,0.22214186,-1.130242,-0.3978338,-1.1065195,-0.021957695,-0.7709732,-0.51102674,-0.74586093,0.010388207,1.0226601
covid_1_CATGCCTAGCACACCC-1,1.7520504,0.5814377,1.1505493,2.0041199,1.2383385,0.037457347,-2.4614131,-1.6614984,2.043641,-0.7698866
covid_1_ACTATCTTCCACGAAT-1,0.011066318,0.054242283,-0.29490614,0.8678745,-1.4392195,0.32745367,0.2204558,1.8009729,-0.99617887,0.8217457
covid_1_TCGGGACTCTAGTACG-1,-1.0178745,0.99857956,-1.9548604,-1.1897621,0.23603335,-0.6138023,-1.1600357,0.47604787,-0.8018184,1.2755492
covid_1_CCCTAACGTATCCCAA-1,1.5371143,0.79778135,-1.7274185,0.6886878,-0.053932264,0.40011597,0.10780632,0.033084154,0.2948069,0.19618517
covid_1_TTGCGTCAGTAGGGTC-1,0.6005434,-0.5183654,0.17067882,-0.7490315,0.24004358,-1.0216072,0.74943495,0.3407389,-0.30486956,0.7028049
covid_1_ATCACTTTCGGCATCG-1,1.3710423,0.30888593,0.9098896,1.6598207,-0.41083014,0.4774177,-1.3444687,-0.44169807,0.38191676,1.7930608
covid_1_CCTTTGGGTATCATGC-1,0.9641337,-0.5092312,-2.258332,1.1934808,-0.5248234,-0.04139495,0.12211085,-0.62331355,1.1826048,-0.470865
covid_1_CAGATACAGAGTGTTA-1,1.491841,-0.32336074,0.21984836,1.5822405,0.18708302,0.38582903,-0.71427464,0.26432586,0.06813058,0.8773967
covid_1_TCATGTTGTAGGCAGT-1,-0.34126133,-0.25889304,1.1094879,0.449453,0.559259,0.64116293,0.24089386,1.8972118,0.8816769,0.59562606
covid_1_CAACCTCAGGCAATGC-1,-1.1579232,-2.5646586,-0.5805284,0.46998346,-0.39116985,0.18141454,1.7978181,0.43333906,0.56470096,0.5321089
covid_1_AACCCAATCGCCTATC-1,-0.5179685,0.078966856,1.8478559,-0.69865394,-0.13332585,-0.14371437,0.70262027,0.19959164,-0.7632867,-0.6138767
covid_1_CGAGAAGCACTATCCC-1,0.5278102,-0.34259534,-0.9328958,-1.4249363,0.09377082,-0.06044191,-0.98972213,-0.38281894,-0.12206307,-0.09871495
covid_1_GAAGGGTAGCAGATAT-1,0.20752382,-1.0757923,-0.010449916,-1.1877276,0.5174145,-1.0280262,0.33231094,-1.6157812,-0.012487471,-0.3985796
covid_1_CTCATCGGTATACGGG-1,2.6198623,1.668356,1.1473736,1.4718889,1.2975676,-0.791211,-0.244506,-0.2356497,0.28707227,1.3023381
covid_1_GTCTACCGTCTCTCCA-1,-1.6969674,-1.2057765,0.663844,0.41353965,1.1521829,-0.86021864,0.7663337,-0.21633255,-2.3219724,-1.3382393
covid_1_AGATGCTTCCGCAGTG-1,-0.4156329,0.59885985,-0.42522413,-1.4471191,1.4545667,-0.99033153,0.07719513,0.22724283,-0.020964354,0.52693653
covid_1_CAGTTAGTCGACCATA-1,0.4032809,-0.27162808,0.30965653,0.45158017,-0.70678365,1.1540809,0.26076666,1.1187413,0.021228965,-0.25956798
covid_1_TTACGCCGTTCCAGGC-1,-0.846793,-0.94829607,0.34865502,1.014551,-0.22470728,-0.20542061,0.8411675,1.80461,0.72849226,-0.30078042
covid_1_ACGATGTAGTTCATGC-1,0.4982485,0.10318065,-1.1658344,0.84764636,0.5920706,1.1645783,0.4411295,0.38559878,-2.1624906,-0.03466612
covid_1_GGAGATGCAGTAGAAT-1,-1.6794288,0.87200403,-0.39919022,-1.0065398,-0.20826137,-0.26550233,1.7669157,-2.4324732,0.47081655,0.6843932
covid_1_GCCATGGGTGAGATTA-1,0.53307533,-0.8806547,-0.40232974,-1.289582,0.4587627,-0.50425565,0.39519507,-1.1036307,0.23033157,0.36377156
covid_1_ACTTCCGGTGGGCTCT-1,1.8870327,-0.83212686,-0.008978993,1.6276594,-1.8104599,-2.9986992,-0.9877833,-0.45936406,-0.9445765,-2.1316638
covid_1_AGCCAGCCAACTGAAA-1,-0.00027006865,-0.10707246,1.0184691,-0.055686533,-1.536314,-0.9480363,0.37228635,0.46951574,-1.4306997,1.4015131
covid_1_GCATTAGAGACGCCAA-1,1.1100357,0.814983,-0.3751461,1.4879457,-1.0248582,0.8899829,-0.61911523,-0.64404285,0.0036795735,0.17069799
covid_1_GATTCTTTCGTAACTG-1,0.73740304,-0.98737794,-1.7191585,0.27602065,-0.47229165,1.5851471,0.24618371,-0.1700772,-0.22320652,-0.069782495
covid_1_GCAGGCTGTTTCCATT-1,-1.4463143,0.6430433,-1.84287,-0.96282715,0.37390065,0.40448147,-1.6558715,-0.9556147,-1.3925655,0.22556007
covid_1_TGAGGGACATAAGCAA-1,0.8704687,-0.9114832,-0.32191816,0.9622613,-0.11039678,0.93034816,0.32594448,0.7090988,-0.43061832,-0.2745701
covid_1_AGATCCAAGCTAGAAT-1,-1.6810935,0.069707185,0.8527318,1.2256558,-0.3749414,2.5019622,-1.7485925,-2.3706808,-0.41454175,1.0036317
covid_1_AGAACCTCACTTTATC-1,-0.5532102,0.4809484,-1.0104651,-1.0629616,-0.7384179,-0.2388383,-1.2423018,-0.19505095,0.13967544,1.958059
covid_1_GCGATCGCATCTATCT-1,-0.45806274,1.7573222,1.1785302,-0.31216854,0.61669415,-1.2323505,1.4502041,0.6161166,-0.82064855,1.6311114
covid_1_GATCAGTGTACGGGAT-1,-0.38014656,-4.5903797,0.094313264,1.2529734,-0.6447942,-1.1557273,-1.0774521,-0.6680256,-0.27976695,1.678436
covid_1_CCACTTGCAGGATTCT-1,1.4282047,-0.39633942,-1.451696,0.41019642,-0.4277302,0.0696578,0.54554725,-0.020622253,0.7679993,-0.11268115
covid_1_ATGGAGGCACACCGAC-1,-0.62223965,-3.1876564,-0.19339152,1.117822,-0.4964686,-0.4941405,-0.72678876,-0.11399448,-0.20642844,1.0622542
covid_1_CCTCAACAGTTTGGCT-1,1.6361374,0.3628193,-1.0752064,1.2129211,-0.8228922,-1.24244,0.022219546,-0.647395,0.09947565,-1.3534144
covid_1_TCGATTTCAGGCCCTA-1,1.2404457,0.329854,-0.8102858,1.6163357,-1.3900328,0.18826833,0.48527595,-0.8845645,0.27835262,0.73098016
covid_1_ACTTATCCATATTCGG-1,1.858002,0.61021197,-1.0212858,0.75092375,-0.5692798,-0.15300417,-0.5681662,-0.07007253,0.56371677,-0.28089368
covid_1_GGGTCTGCAGAGCGTA-1,0.17440456,-1.1653962,0.9248457,-0.7803994,-0.46926397,-1.0876743,-0.28390193,-3.0183535,0.24246305,-0.60414803
covid_1_AAAGTGATCTTGAACG-1,-0.49389753,-0.70792735,-0.12645613,-0.5706518,0.67538923,-1.0830696,-0.6980692,-1.1579121,-0.98658705,0.91101813
covid_1_GTTTACTCAATCGAAA-1,0.3915161,-0.54832613,-1.2549686,0.47272027,-0.84319574,1.6520861,0.6218921,-0.4013492,-2.1564262,-0.83238614
covid_1_AGGACGACACCCTATC-1,0.2903654,1.7022715,-2.407625,0.8225163,1.538511,0.024065733,-0.42839396,-0.10057294,2.2102523,-0.9460753
covid_1_TGATGGTAGGAGAGGC-1,-0.3197468,1.0428268,-0.48065072,-1.3694749,2.2052143,0.14162922,-1.3099216,-0.047978997,0.25548056,0.351637
covid_1_TTCCGTGCAGATCACT-1,0.22071058,0.57496166,-0.39710104,1.4660329,0.7300079,0.7087557,-0.57414013,1.5793833,-0.111329794,-0.6202209
covid_1_AATGACCCATGTTTGG-1,0.46588254,1.607488,0.93728733,0.851483,-1.3348026,0.38349414,0.8500551,1.3191628,-0.96085083,0.46617264
covid_1_TATGTTCCATAGAATG-1,-1.8026297,-3.1654582,-0.7818279,1.3245775,-0.06410838,-1.0471467,-0.10069413,-0.98625004,-0.07840896,0.5677645
covid_1_GTTGTAGCAGCTTCGG-1,-0.24115342,0.18860433,0.031954914,0.44633007,-1.3380953,0.7187579,0.8109325,1.4226382,-1.3521047,0.84294015
covid_1_CTACCCACAAATGGTA-1,-2.11964,0.5112512,2.3528016,-0.3507552,-0.94229084,-0.48171854,-1.1624045,-0.9050857,0.46576017,2.523993
covid_1_TATCAGGTCGAAGCCC-1,0.44713375,0.9063535,0.96812665,-1.3855491,0.44017798,-0.04442936,0.58049095,-1.0428177,0.5996852,1.0772823
covid_1_CGCCATTTCCCGATCT-1,0.8049582,-0.7475443,-0.16955452,0.67855227,-0.21069175,1.2305856,1.1651171,0.3385173,-0.6312401,-0.62948453
covid_1_ACACCAAAGGGAGGCA-1,-0.105721526,0.15889317,-1.5920998,1.8638257,-1.2596539,0.29285765,-0.6609136,-0.9749671,-0.15837926,2.520087
covid_1_CAGTGCGTCGTTATCT-1,-0.3931511,-1.4551991,-0.9608594,0.8100444,-0.36111498,1.10235,0.86960596,0.01158905,-1.0468322,0.784258
covid_1_CCTATCGCAAATTGCC-1,-0.10196357,-0.9254455,0.3186734,0.13626873,-0.64062953,-1.5487186,0.48261708,0.55336726,-1.2523803,0.20130873
covid_1_ACATCCCCACGGAAGT-1,-0.8393133,-1.5717862,0.086046845,0.90491927,-0.8975912,2.1669993,-0.51908857,-2.639646,0.5876285,1.1119077
covid_1_TACTTCATCATTGAGC-1,-1.0591738,0.50214124,1.6178379,-0.66233647,0.1568708,0.15520096,0.667326,0.17898285,-0.50972223,0.41459024
covid_1_GAAGAATCAAAGGGTC-1,0.18844718,0.47690868,-0.6329465,0.25764668,-0.39864075,1.555341,0.7243825,0.27320778,-0.5757872,0.7227166
covid_1_CCGCAAGAGAAGGATG-1,-0.25935513,-0.78834665,-0.24973243,-1.40517,-0.45714104,-0.072888136,-0.10977284,-0.8742162,0.24823824,-1.0270253
covid_1_CCACTTGTCATACGAC-1,-1.2648802,-0.44719273,0.09201625,-0.57285124,-0.16989529,-0.8975781,0.75776815,0.2494185,-0.2859879,1.3340683
covid_1_TTTACCAAGTGCCCGT-1,-0.8343895,0.75463736,-0.45578718,1.3616458,-1.645018,0.72478396,1.4889092,0.5364586,-0.4411132,0.5118655
covid_1_GCTTTCGCAACAGTGG-1,-1.5789254,1.7755893,-1.4222863,-1.2028503,1.2469124,-0.4896301,-1.1737404,0.22229326,0.3853256,-0.11417496
covid_1_ACACGCGCAAAGGCTG-1,0.42009342,-1.6048428,0.66587424,1.4394208,-0.430808,2.5249157,-0.37895846,-1.5337268,0.5869696,0.51801664
covid_1_TCGTCCAAGGCTGAAC-1,1.7922306,-0.11451858,-1.3968606,0.5947944,-0.031003997,-0.18691754,-0.12352434,0.5919874,0.35574654,-0.5190625
covid_1_TGTGATGCACCAGCGT-1,1.2222116,0.20092252,-2.4366672,1.2190512,0.40949428,-0.7184745,0.108774506,0.47175872,-0.19813868,0.23004723
covid_1_GTCCACTCAGAGATGC-1,-1.0139539,-0.17618589,-0.8867017,0.5192548,0.06722854,1.1058037,0.37999344,1.0397211,-1.9406207,0.32175928
covid_1_TCTACATGTGGCTGAA-1,0.1419577,-0.58062375,1.0050107,-0.5270351,0.95513755,-0.9430102,-0.3720016,-2.713974,0.031862002,0.20508331
covid_1_ACCAACATCCTACCGT-1,-0.7660778,0.33045232,0.8748332,-0.26988858,0.7558093,-0.846352,-0.117478326,0.50904983,-1.1253102,-1.0592223
covid_1_TGCCGAGAGGCGTTGA-1,0.5665751,0.9470136,-0.44427794,1.0713657,0.039744273,1.7157468,0.64177537,0.16628563,-1.3674061,0.1382165
covid_1_TTGGATGAGTCAAGCG-1,-1.2275243,1.4031183,-1.4288261,-1.180014,-1.5741284,-0.99495876,-0.8292471,-0.42378116,-1.1034474,1.5931528
covid_1_TCCGTGTGTCTGTCCT-1,-1.15956,0.82545364,-1.6981639,-0.021296024,2.4034967,-0.20407426,-1.735446,-0.4080187,-1.4642704,0.93486726
covid_1_TATCAGGCACAAGCTT-1,-0.30048674,0.47002816,-0.9004985,-1.0698837,1.2970203,-1.4918572,0.5752193,0.1677115,-0.3425705,0.8695731
covid_1_CATCCACCATAGACTC-1,0.16219133,-0.63535845,0.8178841,1.2443746,1.93506,1.1925166,-0.7627368,1.3815935,0.29149318,-0.12494171
covid_1_AAGCCATGTGAGGAAA-1,1.7681355,-0.07698804,-1.6660486,0.77446306,-0.20551336,0.32847583,-0.5036718,-0.29045057,1.2984349,-0.77065253
covid_1_GGTTAACTCTGCGGCA-1,-1.4810178,-0.0703491,0.516327,0.8093072,-0.31550717,-0.18906522,0.84153414,1.695599,0.5884032,1.4066428
covid_1_TGGGATTCATACCGTA-1,1.2692869,0.31355983,0.43550518,0.7888721,-0.45516533,1.3567928,0.6113919,0.31597102,-1.958633,-0.74547696
covid_1_TTGTGTTAGACATAAC-1,-0.08607834,-0.7653233,-0.85791826,1.1225873,-0.3181978,-0.6271204,0.002222158,-0.6245562,0.42714986,0.22232634
covid_1_GTAGGTTAGCGGGTAT-1,-0.05156827,-0.5071515,0.995562,0.90728533,-0.8355666,0.057089806,0.35496873,1.776032,0.28899533,-0.1114105
covid_1_CTACAGAAGCCTCTGG-1,2.388051,0.43492246,0.66640294,1.0345997,0.57599944,-0.36517608,-0.68579924,-0.23272479,-0.53977776,0.6463663
covid_1_AGAGCCCGTCGGTAAG-1,1.6339743,1.2719569,0.28937176,1.2941532,-0.46080118,-0.14640331,-0.19993201,0.58717436,-0.10393605,1.6898334
covid_1_GTGAGGACACCGTGGT-1,1.0209315,-0.21639398,0.8351748,2.44941,-0.69865423,0.63449955,-1.9532717,-0.6795317,0.24376523,0.764977
covid_1_AAGTGAACACAGCGCT-1,-0.58759624,0.024398804,0.66772354,0.91159785,0.100896075,0.70106286,0.12818453,1.7548709,-0.06466973,0.13496101
covid_1_TTCATGTGTCACCCTT-1,0.29420632,1.3432177,-0.58655775,0.93483245,-0.13279244,1.1681001,-0.20653099,0.8205534,-1.1724663,1.6491067
covid_1_GCGTTTCTCGAACACT-1,0.99748445,0.52159405,-0.84095764,1.2938536,0.38721102,0.15712965,0.41344088,-0.2619964,0.8144618,0.62016505
covid_1_ACGCACGAGTGATTCC-1,-0.107989125,0.028753102,1.216837,1.4717022,-0.49435258,0.110103965,0.011734494,2.1365805,0.75090885,-0.42555773
covid_1_TTATTGCCATGGGCAA-1,0.5637129,0.5318761,-0.72153044,0.71270466,-0.0746356,0.8470924,0.58762884,1.1909091,-1.2919436,0.04274786
covid_1_TCATATCAGAGTCTTC-1,-0.80281097,-1.4823755,-0.32742947,-0.48699063,0.9871798,-1.6218959,1.5611995,0.2475326,-1.2763952,1.8259355
covid_1_TTCCACGGTTGACTAC-1,0.07680124,-0.075889915,-0.9772855,1.3395711,-0.7633182,1.3161644,0.25732028,0.41235495,-1.5297122,-0.3097731
covid_1_ACTGTGACATGAAGCG-1,-0.71328014,0.58857995,0.061217874,-0.15599543,-0.8167542,-1.6584529,1.097895,0.31013453,-0.4443241,-1.0480622
covid_1_GGTAATCTCGATCCCT-1,-1.178344,-0.6765746,1.1710991,-0.5797421,-0.214939,-0.59983385,-0.23845175,0.70581186,-1.2746978,-0.88976526
covid_1_ACTCTCGAGAAACTCA-1,2.7529876,0.97896737,0.824098,1.4539152,0.6682985,-0.7381642,0.39469492,-0.8872174,-0.67792594,2.0456524
covid_1_CGTCCATTCGTTCCTG-1,0.19177085,-1.9404235,0.24198495,0.36686504,-0.23398614,0.49788505,0.44235763,1.5673523,-0.56336796,-0.5071157
covid_1_CAGGTATAGTAATCCC-1,1.0647109,0.6923096,-0.8809409,0.4676615,-0.17850551,0.56076115,0.22310063,1.7096,0.5352452,0.87333435
covid_1_GTCACGGCAGCTAACT-1,1.0023292,-1.6670249,1.8816277,-0.44649863,0.49689662,-0.49946153,-1.6613691,-1.8174185,-0.75731134,0.63877964
covid_1_TGGTGATCAAGCGGAT-1,-1.1509511,-0.22065774,-0.56476843,0.65881,-1.1919961,1.143635,0.7886648,1.119996,-0.6172204,0.46572113
covid_1_ATTACCTTCCGCTTAC-1,-0.33849996,-4.0423083,-0.25307098,0.8677374,-1.3706758,-1.1003873,-0.70164335,-0.82041633,0.1685932,1.8013349
covid_1_GTAACACTCATTTCCA-1,-0.9405082,0.45011628,-0.73858845,0.40942216,-0.41599464,0.70764893,1.3143877,1.0567393,-0.009413183,1.2004256
covid_1_TTACCGCGTCTACAGT-1,-1.2190549,0.2208078,0.8147664,-0.8426664,0.2958225,-0.42771208,0.38231874,0.98705316,-1.2719505,2.008267
covid_1_ATCCATTTCTGTAAGC-1,0.63532287,-1.87708,-1.9546934,0.97738564,0.34586442,-0.16591126,0.61680865,-0.41622663,0.7321248,-0.17937803
covid_1_GAGGGTAGTTGCCGCA-1,0.22844255,-1.1835012,0.70590866,1.5327264,0.52533025,0.43201238,-0.54522306,1.6854573,-0.732957,-0.50024164
covid_1_CGATGCGTCGTTGTTT-1,2.4996448,-0.22708848,1.594789,1.3379844,0.9321198,-0.19582784,-1.445248,-0.077313066,0.40459204,1.767198
covid_1_CGTAAGTTCCCTCTAG-1,1.3054476,-1.827325,-1.1185023,0.62833846,-1.7813036,0.08839095,-0.27888238,0.117364645,1.0492221,-0.02602011
covid_1_AGGAAATTCTCTTCAA-1,0.7847496,0.40162313,-1.1498238,1.4880735,-0.09660105,0.26487502,-0.47515437,-0.84978783,0.8048538,-0.33881938
covid_1_TCGTGCTTCTGTCGCT-1,0.9428882,0.15106219,-1.2984897,0.287849,-0.28605616,1.8401314,-0.02487608,-0.40770853,-2.0934234,-0.2628795
covid_1_CAACGGCGTCGGCTAC-1,1.7086444,0.32063746,-0.0046361387,1.5622185,-0.66055775,1.0822331,-0.69359714,-0.626717,1.2906632,-0.666396
covid_1_CTTCCTTGTGAGGAAA-1,0.5171784,0.65719026,0.2857555,0.31945598,-0.7351261,0.6247104,1.5437768,0.6108512,-0.011058107,1.657763
covid_1_CAACAACTCCATTCGC-1,0.6729076,-0.88305783,1.0814611,0.003118813,-0.10873369,-2.0365825,1.1598008,0.6127732,-0.6677811,-0.3815621
covid_1_CACAACATCGGTAGGA-1,-0.8028658,-0.5600012,1.0886004,-0.5488313,0.34179336,-0.38773334,0.1556313,0.6931077,-1.8768032,-0.31066418
covid_1_GTTTACTTCCTACCAC-1,0.67714417,-0.6797583,0.8120959,0.8583473,-0.47646987,0.078482985,-0.53802705,1.8896664,0.44602585,0.5403744
covid_1_AATTCCTTCCGCGAGT-1,-0.69504696,-0.4803906,2.1639254,0.49771345,0.8444826,-1.2109455,1.2603604,-1.6733409,-2.2049575,1.5278175
covid_1_TTCCACGAGCGGCTCT-1,-0.7839548,1.5038245,1.694904,-0.49843323,0.8916511,-1.2225238,0.69176936,0.59684455,-1.0605885,-0.061178684
covid_1_AAGCGAGCATGTCAGT-1,-0.58152694,-0.26909453,-0.30232617,0.57862973,-1.0875068,0.56000584,2.0190353,0.5413408,0.071319774,1.2036417
covid_1_TAGAGTCTCCATCACC-1,-0.8316634,-0.38833517,0.4454827,0.76589787,-1.0485628,-0.14837086,0.67436296,1.7534673,0.34228337,1.0282111
covid_1_TATCAGGAGGATTTCC-1,-0.566665,-0.019658923,-0.043989807,-1.5718869,-0.5208881,0.12920594,0.87525773,-1.3250853,1.411515,-0.5061201
covid_1_TAATTCCAGTTCGCAT-1,-0.30614966,-0.49313062,0.07383266,0.046281517,-0.47167754,0.8666207,0.44205773,1.1292537,-1.2116057,-0.44999945
covid_1_ATGCGATTCGCAGTCG-1,-0.46038017,0.72323716,0.45015952,0.6737677,-0.8827739,0.6385827,0.18909115,1.3858575,-0.44608888,1.4428012
covid_1_CTCCATGTCAAGCCCG-1,0.5443867,0.30986595,-1.748198,1.3472098,-0.01424247,0.40295863,-0.5154872,-0.106502175,1.2973306,0.1613648
covid_1_TTGAACGTCGCCTCTA-1,0.46577603,0.107782006,-0.39483857,0.41990578,-0.1227561,1.144199,0.60177505,0.75059384,-1.4300416,0.4875133
covid_1_TCACGCTTCCCTTCCC-1,1.4205446,-2.1555445,-1.9133708,0.8503419,-0.9821939,-0.65847325,0.5087705,0.01558125,0.65881574,0.4375081
covid_1_TGCTTCGAGAATTGCA-1,0.42912537,1.4926113,-1.0939198,0.42071056,-0.5209336,2.144249,0.62538105,-0.7451726,-1.5275967,0.5022506
covid_1_CCGATGGAGCTAGAGC-1,-0.13810986,0.16678128,3.07383,1.0442615,0.06938033,-1.7393414,-3.3677118,-2.9072928,-3.5332146,-1.5868496
covid_1_TAATTCCAGAGAGCGG-1,0.64720255,0.093848705,0.18021238,1.0210098,-0.07345287,0.4000008,0.8168818,1.3683143,-0.577919,-0.5248959
covid_1_ACGTAACGTGACACGA-1,0.39753234,-0.32198352,-0.9431826,1.0004698,-0.29511768,0.22053689,0.6274482,1.4009552,0.10863033,0.65416974
covid_1_GCGTTTCTCACAAGGG-1,-0.9100664,-0.84403336,0.22615924,1.4001993,0.7065081,0.20790017,0.10185588,1.5125877,-0.4870468,-1.3067745
covid_1_ACTCCCACACAGCCTG-1,-1.926038,-0.9749055,-0.9893186,-1.0523562,-1.2764413,-0.91238606,-0.050310366,0.7259149,-0.36245677,0.78532094
covid_1_TAGGTTGCAATCCTTT-1,0.17651016,0.466753,0.055084437,-0.025042832,0.6999061,1.0242856,0.44932365,1.1763912,-0.98251796,0.20347393
covid_1_CGCATGGTCGATACAC-1,0.26349294,-2.3237147,-0.9622811,-0.67542374,0.67984456,-0.71981764,-0.04195739,-0.7482084,-1.125069,0.001009345
covid_1_CGGAACCAGGGCTAAC-1,-0.301642,-0.57556033,-0.055814147,0.52509105,0.13286327,1.2507817,-0.25620395,1.254947,-0.5848154,-1.4875613
covid_1_AATAGAGTCAAGGACG-1,-0.0727418,-1.5362769,-0.314575,1.760862,0.16074936,0.5644175,-2.4972882,-0.5291734,-2.412071,-4.637813
covid_1_ATCGTAGCACAGTATC-1,-0.37929755,0.6253929,-0.016478479,0.98245156,-1.122382,0.4269989,1.1071817,1.3380811,-0.6750095,1.195691
covid_1_TGAGGAGAGTGAATAC-1,-1.1490467,-0.2818039,0.6853833,0.49835587,-0.642373,2.315147,0.13338202,-1.145595,-0.016944706,0.80260473
covid_1_GTAGATCTCCGTAGGC-1,-0.67469126,-1.3041426,0.016631214,0.8083719,0.69369155,0.26009083,0.3109475,1.4471495,-1.9548831,-0.9379885
covid_1_TATTGCTGTAAGCGGT-1,0.06893122,1.8950509,-1.1579865,0.6391603,-0.68084943,1.6154162,0.7872908,-0.1456052,-1.6660001,0.2947855
covid_1_TACGGGCAGTATAACG-1,-0.29859155,0.119515866,-0.3593053,0.56681025,0.007935524,1.0611011,0.50838953,1.1609067,-0.53211737,0.5627412
covid_1_CTAGGTATCCCGGTAG-1,0.9584118,0.6350423,-1.0109935,1.30503,0.1025389,-1.2909014,0.99567807,-0.69963515,1.1912999,0.21546006
covid_1_GTTTACTCAAATGGCG-1,0.721786,-0.13307476,-0.1067732,1.1811656,-0.6345224,0.5970077,0.6602378,1.4356607,-0.38440618,0.8345927
covid_1_CTGCGAGCAATCCAGT-1,-0.17659658,-0.88014334,-1.1131473,-1.2967426,1.2861495,-0.03780651,-0.85667074,-0.095231414,0.9589642,-0.62104654
covid_1_GTCAGCGAGGAGACCT-1,0.49168652,0.12682861,0.5447868,1.4195784,-0.14950106,1.2880948,-0.7155402,0.52301544,-2.5387945,0.98188305
covid_1_GTCGAATCACCACATA-1,-1.0308595,0.5388329,0.4952354,-0.47585505,-0.14074671,-0.29734087,1.0599158,-0.77271616,-1.0760028,0.99006855
covid_1_GGAATGGAGGATGGCT-1,-0.72004765,-1.3243339,1.063397,-0.17521262,-0.32907206,-0.35401523,0.21888435,0.07504928,-1.7875904,-0.2556759
covid_1_AAGTGAATCATGAGGG-1,0.07721299,-0.9186033,1.2017478,-0.785594,0.9628416,-0.5536512,-0.6728027,-2.5773473,-0.5449587,1.0863866
covid_1_AGCTACACAGGTACGA-1,-0.6196566,0.9155253,-1.2758263,-0.56744,0.25934005,-0.62332153,-1.922859,-0.4421147,-0.28193408,1.6737654
covid_1_GAACGTTGTACTCAAC-1,0.023037374,-0.44871312,1.5364503,1.0398661,-0.48727244,0.48642695,-1.5323733,1.9963427,1.2881887,1.1387659
covid_1_TCGTGCTCATAACAGA-1,-0.16994613,0.010606766,0.43676767,0.60826755,-0.81157523,0.9541037,0.76743156,1.0591087,0.60213387,0.48625666
covid_1_CTACCTGCACTACTTT-1,-0.80582947,0.5637744,-1.258563,-1.2135806,0.85652906,-0.002389431,-0.8560564,0.027570844,0.64961684,-0.83568525
covid_1_GCATCGGGTCCACACG-1,-0.022482693,-0.7059835,0.3295264,-0.52893966,0.73643225,-1.0451541,0.5018207,-0.020111918,-1.4490223,0.3156219
covid_1_TGATGCATCGACGAGA-1,1.0416784,0.9636818,-1.6562045,-0.32803655,1.3049662,-0.2544716,0.023884676,-0.5379809,1.1837754,-1.2087616
covid_1_CAACGGCAGTACTGTC-1,0.9143152,0.3093046,-1.7247328,1.1053499,-0.010260001,-0.73137414,0.7643254,0.15429986,1.4616443,-0.20343912
covid_1_AAGCGTTCATGAAAGT-1,0.9395623,0.12984377,-0.8729285,1.073167,-0.36940634,0.13567197,0.72635186,-0.21812165,0.5590026,1.0058926
covid_1_GCCAGCAAGGTACATA-1,1.277959,0.08736372,-0.342742,0.18538308,-1.1484705,0.96304846,1.3407912,0.5888143,-0.65833783,0.4706527
covid_1_TCAGTCCAGGCTCACC-1,-0.31592637,-0.1611229,0.74419403,1.2021364,0.2373817,-0.0025699139,-0.528421,2.1635275,0.60739803,-0.014346123
covid_1_TTGTTTGTCGAATGCT-1,1.1107206,1.0279373,-0.5582347,2.0664964,0.36535805,-0.36204505,-0.07442631,-0.7386197,-0.09057455,0.43138218
covid_1_AGTCATGAGCTAGATA-1,-0.0052369237,1.0245453,0.4375113,1.5926794,0.41517073,0.14000583,-0.9452554,1.7945387,-1.3381765,-1.6111766
covid_1_AGCGATTGTAACTGCT-1,0.93018216,1.4028183,-2.511288,1.0474845,-0.7105643,0.774483,-0.72389615,-0.26425362,0.7391081,0.020877007
covid_1_GCCAGGTCACGACCTG-1,0.9900716,0.36469042,-0.71536124,1.9748069,-1.2892376,-0.36588204,0.52689517,-0.9604982,0.33092874,0.8001344
covid_1_TTCTTCCAGTACAGCG-1,0.024503112,0.330405,0.68189776,0.9169179,-0.35651487,0.75651526,-0.61717886,1.8293514,-0.2060031,-0.24629128
covid_1_CCACGAGGTGAATGTA-1,0.0642969,-0.10241155,0.53029346,1.0780748,0.121838525,0.6537103,0.4179024,1.4604745,-0.11047977,-0.79835594
covid_1_CGAGTGCAGCACTAAA-1,0.4448268,0.77662814,1.497533,-0.40568674,-0.64283955,-0.24250524,0.76756376,0.61909753,-0.82320535,0.50766623
covid_1_GAAGGGTTCTGTTCAT-1,-0.27898747,-4.1314573,-0.3559194,1.374092,-0.11762167,-1.2697203,-0.867349,-0.62478197,-0.4092836,1.0906855
covid_1_GTAGAAAGTAGTTCCA-1,-0.8256416,-1.1077908,0.0786998,0.9855665,-0.55584157,0.29847306,-0.2148993,2.0331461,-0.42734912,-0.27344835
covid_1_TCGGATAAGTTGTCAC-1,-1.4978349,-0.9148123,-0.6393864,1.1120691,0.1932006,-0.17359102,0.82282543,1.5668026,-0.6045984,0.20665151
covid_1_CCATAAGTCCCGAACG-1,0.092107475,-0.4286685,0.9540354,0.94385874,-0.1499835,-0.0826602,0.37927496,2.236266,-0.5931741,0.5131158
covid_1_ACTTAGGTCCAGCTCT-1,-0.0041513443,-0.71396124,0.74607575,0.5913204,-1.0065187,0.23582774,-0.20416558,1.5125927,1.1421334,1.3744453
covid_1_TTTGTTGTCACTTATC-1,-0.9225244,0.8067664,0.10139406,-1.3725147,0.5995069,-1.0138503,0.68602073,-1.1473609,-0.55553436,0.67197275
covid_1_GTCTAGACACATGGTT-1,-1.9022596,-5.4300857,0.7586298,1.7658745,0.14608271,-0.64761794,-2.7539241,-1.5153557,-1.2736841,0.25106966
covid_1_CTCCCAACACCTCGTT-1,0.11143398,0.36237496,-1.5465844,0.5840205,-0.30909517,1.2189019,-0.44284427,0.6497909,-2.7536461,-0.05913067
covid_1_GACATCAAGAAACTAC-1,-0.013239503,-0.12825872,1.1142391,0.6842823,0.371979,1.0663104,-0.22544742,1.340582,-0.732808,-0.30717635
covid_1_TGCGGGTAGAAGCGCT-1,0.5307237,-0.66065574,-0.1432683,0.098305345,0.30838776,0.8274998,0.85005224,1.2539005,-0.7353742,-0.12909067
covid_1_ACAGGGATCGAGGCAA-1,-0.38194174,-0.5686755,1.0905491,-0.6498704,0.6582065,-0.16302663,0.47414044,0.6979097,-0.93660045,-0.84915936
covid_1_AAGCGAGAGTTCCGTA-1,-0.94190544,0.5879781,-1.5269338,-0.7537329,1.1251459,-0.75993264,-0.6701001,0.24433053,-1.1162307,1.3581154
covid_1_TCGGGTGGTGACTGTT-1,-0.43586558,-0.60094917,-1.1690568,0.33350503,-1.0183454,1.442398,1.4223104,0.34795058,-0.051575482,-0.22679293
covid_1_ATTTCACGTCGCATCG-1,0.9200966,1.1192707,-1.1369721,1.1269648,0.34748065,0.6629886,-0.18105817,-0.15505254,0.6361115,1.5781757
covid_1_AGGTGTTTCTAGTTCT-1,0.8773043,0.24801625,-1.3417732,1.5456136,-0.4729786,0.24072465,-0.8385607,0.039282203,0.42791486,1.2640064
covid_1_ATCCGTCTCCACTAGA-1,0.832499,1.9636203,-0.35622853,1.7671224,0.86782986,0.2195304,-0.029800534,-0.97854483,0.018216398,1.3314955
covid_1_ATTACTCAGTTACGAA-1,-1.0773554,-1.7853075,-0.4470231,-0.07032168,-0.3520139,-0.5647099,0.67934,1.7077354,0.5065893,0.55037624
covid_1_TCGCTCATCTATTCGT-1,0.3431369,-0.4718358,1.0813688,0.122440815,0.88043314,0.4915089,0.05291621,1.8056334,-0.13929376,-0.74121606
covid_1_TATTTCGAGGGAGGTG-1,2.0167637,0.8078432,0.12539294,1.3226811,1.8868332,-0.9209099,-1.4858588,-0.44179618,0.60526663,1.2451279
covid_1_GTAACACGTGTTGAGG-1,1.1328437,-0.33256876,-0.6003512,-0.17120552,-1.9039402,1.4216092,0.6044626,0.36839116,-0.70074975,0.08132148
covid_1_TAGGTACGTATCATGC-1,-0.17516905,-1.5110074,-0.71092296,1.3474501,0.8693692,0.28902078,0.52046824,0.9589344,-2.318223,-0.41813457
covid_1_GACCCAGAGCTTGTTG-1,-0.65377504,-0.46186316,0.7568265,-1.1035293,0.4924881,-0.45008028,-0.5990565,-0.21232855,-0.11659968,2.6081607
covid_1_GTGAGGAAGGTTCCGC-1,0.2174589,1.7786516,-0.40836492,1.3617193,0.43737692,1.6567079,0.25193322,0.13476622,-1.4472523,0.34132034
covid_1_CACGTGGTCCGTGCGA-1,-1.3609602,0.16072956,-0.11996205,0.012479842,-0.93975633,-1.4808887,-0.15670767,0.16600657,-1.6715875,-1.512096
covid_1_TGCGATAAGAGCCGTA-1,-0.742132,0.6868639,-0.12203704,-0.5559964,-0.47071648,0.8349613,0.6881026,1.2167343,-0.8784398,0.7921417
covid_1_ACTACGACAATTGGTC-1,0.78073454,-0.730371,-0.52556235,1.1961666,-0.007460892,-0.3173442,1.0152698,-1.0667621,1.6247857,0.07244843
covid_1_ACGTTCCCAAGACGGT-1,-0.07289248,-4.507311,-0.13799392,1.044641,-1.2513992,-0.8054699,-0.71486855,-1.1551157,0.2192482,2.1358316
covid_1_GAACGTTCATTCTGTT-1,1.9573278,1.6940786,0.45743868,2.1720133,0.323202,-0.8517326,-0.4503671,-0.34497023,0.5697529,0.15835953
covid_1_AAGGAATGTTTCGGCG-1,0.39282715,-0.3132354,0.6180173,-1.2845926,0.23896557,-0.5348525,-0.06996284,-0.22061408,0.09188339,-0.3976611
covid_1_CTTCTCTGTTCTAACG-1,0.69587445,-0.33640397,0.68332684,-1.6559501,0.7738864,-0.8103293,0.18809581,-0.24428916,0.36266887,-1.0545834
covid_1_AAGCATCGTCTACTGA-1,1.076051,2.580052,-0.12618405,1.4905163,-0.5842203,0.14496946,-0.828243,-0.9058703,0.3232715,1.9049505
covid_1_TAACTTCCAACTTGGT-1,0.3769967,-0.43948,-2.1565084,1.2442338,-1.1283532,-0.78511953,0.18399477,0.21942306,0.97191596,0.009533465
covid_1_TCGGGCAGTTAAAGTG-1,0.22828549,-0.1196949,0.043783993,0.7187854,-0.4933769,0.9189573,0.34823948,1.4543576,0.06361899,-0.1996671
covid_1_AAGTCGTGTCGAGCAA-1,-0.08779245,0.42073596,1.6668975,-0.8182445,-0.08588932,-0.0761984,0.6985593,-0.09588945,-0.44442925,0.60840213
covid_1_GCTCAAACAACTGAAA-1,-2.220098,1.0559705,1.5692567,0.8163675,-0.81262654,-0.9269769,0.030708037,-0.43623364,-1.7174287,0.8292649
covid_1_CTGAATGGTCGTGGTC-1,0.6591697,1.3334407,-1.7407684,-1.0831887,1.3812888,-0.36337936,-0.38154644,0.49925196,-1.4243295,1.607125
covid_1_GGCACGTAGCTCCCTT-1,-0.3943413,0.8108181,0.79111826,1.3328458,0.9749618,0.5411001,-0.3708709,1.5724548,-1.2942412,0.44400728
covid_1_CTGCCATCAGAGCTAG-1,-0.17332286,-1.453453,2.072753,0.6643127,1.4749925,-1.194099,0.47903186,-1.960817,-1.3544177,1.8422636
covid_1_ACCAACACATTGTCGA-1,0.5668993,-0.27796483,-0.48506147,-0.19792867,0.2623409,2.3330145,0.87747955,-0.32065618,-0.9258934,0.25318897
covid_1_ACTTATCGTGTGCTTA-1,-1.4203658,1.2627978,0.7826563,-0.186499,0.47745234,-0.9707092,1.0044199,0.11773884,-1.9013901,0.82351136
covid_1_TCCACCACAGCACACC-1,-1.0047598,0.15636593,0.22115627,1.196364,0.08006452,0.1499359,-0.29507625,1.6450458,-0.69010043,0.7422099
covid_1_CACAGGCCACAACGTT-1,0.9747566,0.5285047,0.55030954,0.27710903,-0.035627797,0.76343876,0.06942261,1.6505787,0.092900336,0.8147634
covid_1_ACTCCCATCTCGTGGG-1,-0.3618744,0.48427558,0.15687111,0.43586695,-1.5603259,0.8071338,0.71782637,1.2946718,-0.11835593,0.82718813
covid_1_GAGCTGCGTAGGCAGT-1,-1.3025243,0.406425,1.2065309,0.7992039,-0.5003443,-0.71879685,0.70768976,-1.7474376,-1.5621955,1.9791378
covid_1_CAGATTGTCCCTGGTT-1,-0.37970692,-0.36770785,-0.4702855,0.7841431,-0.4012043,0.35929912,1.8655628,0.5113822,0.16839753,1.0878018
covid_1_CGAAGGACACTCCGAG-1,-0.5981007,0.28945976,0.7784585,0.8306341,0.0071832687,0.7442235,-0.40137058,1.8012347,-0.33632877,-0.19024968
covid_1_CAAAGAAGTTCTCGCT-1,-0.35209614,0.32405055,1.1110828,1.2237071,0.1632397,0.62336344,0.21662185,1.7469387,0.3022772,-0.5569178
covid_1_TCGCACTTCCTTGGAA-1,0.45932323,0.45365983,-0.2887016,0.45373237,-0.5195031,0.8291926,0.25941336,1.0607033,-1.136619,0.69553477
covid_1_CATGCAAAGCTAGAGC-1,-1.6168029,0.3096465,0.56071603,0.2092948,-0.26319677,-0.9243405,1.2117071,0.915292,0.05162431,-0.0047941804
covid_1_ATTACTCAGAAGAGCA-1,-0.45911524,-1.2118436,-1.9130274,0.936767,-1.9387356,1.8045357,0.8977438,-1.7982057,-1.5600457,0.9799073
covid_1_TGATCAGTCTCCTACG-1,-0.13764554,0.5044027,0.41070053,1.0747674,-0.13590509,0.95544195,-0.13227841,1.2524146,0.3596697,0.06475091
covid_1_CTGGCAGTCGCAACAT-1,-1.0090489,0.8571533,-0.17231715,1.8068513,0.73488665,-0.045244634,0.47493616,1.8681831,-1.0213075,0.79286313
covid_1_TCAAGACAGACGCATG-1,0.2680089,-0.689288,-0.6005026,-1.4278594,1.6807845,-0.6413276,-0.8915167,0.25662243,1.1128105,-1.1104208
covid_1_GTGTTAGTCACATCAG-1,-0.8576253,0.1566746,2.2345638,0.26486593,0.09339343,-0.6498991,0.28218347,-0.9734093,-1.7203554,1.7375269
covid_1_AGTAACCAGAAACTGT-1,-1.0934522,-0.09362143,-1.1244946,1.0997531,-1.1683234,1.001442,0.9747121,0.33445728,-2.2227254,-0.75269186
covid_1_GGTGAAGTCATCACCC-1,0.97725123,0.24649854,-0.4723478,0.29483515,-0.6029428,0.77476007,-0.29751557,1.4067428,0.86518514,0.064640045
covid_1_AGCCAATGTACGCTAT-1,-1.1104004,0.9709998,1.191935,1.3831447,0.651854,0.4338873,-0.11875892,1.7674003,-1.0319228,-0.39566636
covid_1_ATCACGATCACTGAAC-1,-2.4385216,1.9041127,-1.1685091,-1.1345475,-0.75836426,-0.21121573,-0.55223346,-0.7280196,0.32543105,2.2439914
